<?xml version="1.0"?>
<opencv_storage>
<opencv_ml_ann_mlp>
  <format>3</format>
  <layer_sizes>
    120 40 65</layer_sizes>
  <activation_function>SIGMOID_SYM</activation_function>
  <f_param1>1.</f_param1>
  <f_param2>1.</f_param2>
  <min_val>-9.4999999999999996e-01</min_val>
  <max_val>9.4999999999999996e-01</max_val>
  <min_val1>-9.7999999999999998e-01</min_val1>
  <max_val1>9.7999999999999998e-01</max_val1>
  <training_params>
    <train_method>BACKPROP</train_method>
    <dw_scale>1.0000000000000001e-01</dw_scale>
    <moment_scale>1.0000000000000001e-01</moment_scale>
    <term_criteria>
      <iterations>30000</iterations></term_criteria></training_params>
  <input_scale>
    3.6099970915288040e+01 -5.3730617373944543e-02
    4.4972068612859033e+00 -4.0842757889380121e-01
    2.9780395737140348e+00 -1.8490133642306250e+00
    3.8167795803373212e+00 -3.2140049901957934e+00
    4.2010243336089603e+00 -3.0705898162030998e+00
    4.2887324199857693e+00 -3.4502594081392930e+00
    3.9971195597452809e+00 -3.3188639068606678e+00
    3.0207777485844933e+00 -1.3945614350652187e+00
    7.0267192601922055e+00 -2.7872464284307547e-01
    5.2968036580974555e+01 -2.9989676760770512e-02
    4.5093171322799535e+00 -3.3808564981000719e+00
    4.5060235053485860e+00 -3.6659166524455897e+00
    4.5236380441581661e+00 -3.0371347322113160e+00
    4.4115851105308250e+00 -3.1238898466410703e+00
    4.6712829662842026e+00 -3.6423001141295543e+00
    4.5540829541178081e+00 -3.4902355322633429e+00
    4.2472031166836164e+00 -2.8357687548202080e+00
    4.5346985724349924e+00 -3.2227053228383302e+00
    4.3832511032926487e+00 -3.5702974737836142e+00
    4.3065107414455932e+00 -2.9975926848845051e+00
    3.5391943337904747e-01 -2.7018925227934216e-02
    4.6851932491308687e-02 -2.2744552157225861e-01
    1.2981936615217413e-02 -7.8502576908890187e-01
    1.0886850269381049e-02 -1.4907913910020039e+00
    1.0285276468833862e-02 -1.6851671817959846e+00
    1.1439636101593384e-02 -1.9644534657884811e+00
    1.1337670223754934e-02 -1.4849308422066467e+00
    1.6339214318192366e-02 -5.8885108041369538e-01
    6.8959826803845811e-02 -1.3462771958095859e-01
    4.6202202175634055e-01 -2.3743314844762720e-02
    3.3150396892964867e-01 -2.9659044957175550e-02
    3.6334881075909403e-02 -2.7320114067100254e-01
    1.1459918752176116e-02 -1.0603209823851094e+00
    1.0960000009046228e-02 -1.7493621709690055e+00
    1.1566757999268798e-02 -1.3963650080864538e+00
    1.2150123486456920e-02 -1.7517158994669055e+00
    1.0623275728834184e-02 -1.7622416766081588e+00
    1.3657034080014915e-02 -7.9094868039148725e-01
    5.6072502104476396e-02 -1.6527344824986681e-01
    4.7376749381349914e-01 -2.4640251055868940e-02
    3.2601389993174112e-01 -3.0540463785321298e-02
    3.2215065122605635e-02 -2.8824614519212344e-01
    1.0536535602890978e-02 -1.0153636163759976e+00
    1.1124746731476986e-02 -1.4610117277479053e+00
    9.9305869038631041e-03 -8.4997793839179225e-01
    1.0068116698379811e-02 -9.7629625601722148e-01
    1.0130909266880277e-02 -1.3996072889327531e+00
    1.2216942184769090e-02 -7.7028384007996642e-01
    4.9392330483488053e-02 -1.8386876837280886e-01
    5.3237998038194378e-01 -2.3172752535973406e-02
    2.8237696781390559e-01 -3.0945900131918329e-02
    3.2604040809865641e-02 -2.8888015899779534e-01
    1.0576136930819378e-02 -1.0303872290048151e+00
    1.0898286588417867e-02 -1.5529663645281155e+00
    9.9255394566236093e-03 -1.0475263532825636e+00
    1.0446931599781939e-02 -1.1742063926177293e+00
    1.0021745337550146e-02 -1.3231477494359385e+00
    1.2518274533789505e-02 -7.1222324182690722e-01
    5.2201236934085106e-02 -1.7542408122310713e-01
    4.8515575374156461e-01 -2.7305218262094127e-02
    3.2937390708447595e-01 -3.0141454688307562e-02
    3.6783702130290634e-02 -2.5774554849774761e-01
    1.0984572804208635e-02 -9.3891266852670974e-01
    1.0185490042854994e-02 -1.6098068947986999e+00
    1.0644878572928449e-02 -1.6634258948211804e+00
    1.1534444173666275e-02 -2.0166444829588723e+00
    1.1256680337213705e-02 -1.7599430452328770e+00
    1.3589814736773313e-02 -6.7118926249076105e-01
    6.0939778211131938e-02 -1.5744505387865229e-01
    5.7185522121580923e-01 -2.2200063383215427e-02
    3.2937257492654265e-01 -3.6565229821267468e-02
    3.6265731051828662e-02 -2.4943215490634554e-01
    1.1101512206732049e-02 -8.9637545366633586e-01
    1.0439362555887122e-02 -1.4883159590225867e+00
    1.1125257397667449e-02 -1.3595386911348428e+00
    1.1167626084314526e-02 -1.6772970912507672e+00
    1.0893580193347107e-02 -1.7817111062636715e+00
    1.2962628901169478e-02 -7.5301469113820452e-01
    5.9944296940918719e-02 -1.6812313558477718e-01
    5.2584216745581491e-01 -1.9762627431470475e-02
    2.5707091453165881e-01 -4.0269296871097565e-02
    3.2801947258148834e-02 -2.7244849364040302e-01
    1.0592734493329347e-02 -9.5009371319461244e-01
    1.0332965110806313e-02 -1.2762968087267081e+00
    1.1043064994159362e-02 -8.1454757788693999e-01
    1.0580585145421963e-02 -1.0453914230697252e+00
    1.0433732268497989e-02 -1.5646451008705515e+00
    1.1882963564335901e-02 -8.1318950677578605e-01
    5.0338321116538035e-02 -1.9124572608704665e-01
    5.0094440890483960e-01 -1.9850437848993707e-02
    2.4931194690366290e-01 -4.2650542337615047e-02
    2.9880923966223893e-02 -2.9781943752479051e-01
    1.0735719071690714e-02 -1.1430878650810574e+00
    1.1012831596347450e-02 -1.5568336332709629e+00
    1.0786064858182379e-02 -9.0015591453350197e-01
    9.8693489584551954e-03 -1.0110518914088500e+00
    1.0161898237799900e-02 -1.5124674628879680e+00
    1.1747112226079621e-02 -8.4851375038794208e-01
    5.0435243256579561e-02 -1.9779071714621341e-01
    4.5952625938479702e-01 -1.9660246748492028e-02
    2.6661122629544626e-01 -4.2638647608268077e-02
    3.3319128949316254e-02 -2.8225228063819896e-01
    1.1311854479003357e-02 -1.1448526838797346e+00
    1.1012429395770263e-02 -1.8263845848076163e+00
    1.1984962363773997e-02 -1.4694761537960614e+00
    1.2943212685466313e-02 -1.7449920576889066e+00
    9.8943557703556045e-03 -1.5550060440857070e+00
    1.3539843844793597e-02 -8.0667071523018119e-01
    6.0440734026082396e-02 -1.7330634842931719e-01
    3.7901923009980337e-01 -2.0087948793599882e-02
    2.9523253930291954e-01 -3.7089147560251612e-02
    4.4566959590591530e-02 -2.2173931885213016e-01
    1.3260398360482992e-02 -7.5478194036080870e-01
    1.1226658717864411e-02 -1.4521385198591197e+00
    9.8938246884193691e-03 -1.5002428260819771e+00
    1.0092353641603302e-02 -1.4096189228890887e+00
    1.1209075460712068e-02 -1.2211014539476281e+00
    1.6238695869214653e-02 -5.6113034267901052e-01
    7.3062449039312610e-02 -1.4064668460660446e-01
    3.7173904068460939e-01 -2.1014039015853407e-02</input_scale>
  <output_scale>
    5.2631578947368418e-01 4.9999999999999994e-01 5.2631578947368418e-01
    4.9999999999999994e-01 5.2631578947368418e-01 4.9999999999999994e-01
    5.2631578947368418e-01 4.9999999999999994e-01 5.2631578947368418e-01
    4.9999999999999994e-01 5.2631578947368418e-01 4.9999999999999994e-01
    5.2631578947368418e-01 4.9999999999999994e-01 5.2631578947368418e-01
    4.9999999999999994e-01 5.2631578947368418e-01 4.9999999999999994e-01
    5.2631578947368418e-01 4.9999999999999994e-01 5.2631578947368418e-01
    4.9999999999999994e-01 5.2631578947368418e-01 4.9999999999999994e-01
    5.2631578947368418e-01 4.9999999999999994e-01 5.2631578947368418e-01
    4.9999999999999994e-01 5.2631578947368418e-01 4.9999999999999994e-01
    5.2631578947368418e-01 4.9999999999999994e-01 5.2631578947368418e-01
    4.9999999999999994e-01 5.2631578947368418e-01 4.9999999999999994e-01
    5.2631578947368418e-01 4.9999999999999994e-01 5.2631578947368418e-01
    4.9999999999999994e-01 5.2631578947368418e-01 4.9999999999999994e-01
    5.2631578947368418e-01 4.9999999999999994e-01 5.2631578947368418e-01
    4.9999999999999994e-01 5.2631578947368418e-01 4.9999999999999994e-01
    5.2631578947368418e-01 4.9999999999999994e-01 5.2631578947368418e-01
    4.9999999999999994e-01 5.2631578947368418e-01 4.9999999999999994e-01
    5.2631578947368418e-01 4.9999999999999994e-01 5.2631578947368418e-01
    4.9999999999999994e-01 5.2631578947368418e-01 4.9999999999999994e-01
    5.2631578947368418e-01 4.9999999999999994e-01 5.2631578947368418e-01
    4.9999999999999994e-01 5.2631578947368418e-01 4.9999999999999994e-01
    5.2631578947368418e-01 4.9999999999999994e-01 5.2631578947368418e-01
    4.9999999999999994e-01 5.2631578947368418e-01 4.9999999999999994e-01
    5.2631578947368418e-01 4.9999999999999994e-01 5.2631578947368418e-01
    4.9999999999999994e-01 5.2631578947368418e-01 4.9999999999999994e-01
    5.2631578947368418e-01 4.9999999999999994e-01 5.2631578947368418e-01
    4.9999999999999994e-01 5.2631578947368418e-01 4.9999999999999994e-01
    5.2631578947368418e-01 4.9999999999999994e-01 5.2631578947368418e-01
    4.9999999999999994e-01 5.2631578947368418e-01 4.9999999999999994e-01
    5.2631578947368418e-01 4.9999999999999994e-01 5.2631578947368418e-01
    4.9999999999999994e-01 5.2631578947368418e-01 4.9999999999999994e-01
    5.2631578947368418e-01 4.9999999999999994e-01 5.2631578947368418e-01
    4.9999999999999994e-01 5.2631578947368418e-01 4.9999999999999994e-01
    5.2631578947368418e-01 4.9999999999999994e-01 5.2631578947368418e-01
    4.9999999999999994e-01 5.2631578947368418e-01 4.9999999999999994e-01
    5.2631578947368418e-01 4.9999999999999994e-01 5.2631578947368418e-01
    4.9999999999999994e-01 5.2631578947368418e-01 4.9999999999999994e-01
    5.2631578947368418e-01 4.9999999999999994e-01 5.2631578947368418e-01
    4.9999999999999994e-01 5.2631578947368418e-01 4.9999999999999994e-01
    5.2631578947368418e-01 4.9999999999999994e-01 5.2631578947368418e-01
    4.9999999999999994e-01 5.2631578947368418e-01 4.9999999999999994e-01
    5.2631578947368418e-01 4.9999999999999994e-01 5.2631578947368418e-01
    4.9999999999999994e-01</output_scale>
  <inv_output_scale>
    1.8999999999999999e+00 -9.4999999999999996e-01
    1.8999999999999999e+00 -9.4999999999999996e-01
    1.8999999999999999e+00 -9.4999999999999996e-01
    1.8999999999999999e+00 -9.4999999999999996e-01
    1.8999999999999999e+00 -9.4999999999999996e-01
    1.8999999999999999e+00 -9.4999999999999996e-01
    1.8999999999999999e+00 -9.4999999999999996e-01
    1.8999999999999999e+00 -9.4999999999999996e-01
    1.8999999999999999e+00 -9.4999999999999996e-01
    1.8999999999999999e+00 -9.4999999999999996e-01
    1.8999999999999999e+00 -9.4999999999999996e-01
    1.8999999999999999e+00 -9.4999999999999996e-01
    1.8999999999999999e+00 -9.4999999999999996e-01
    1.8999999999999999e+00 -9.4999999999999996e-01
    1.8999999999999999e+00 -9.4999999999999996e-01
    1.8999999999999999e+00 -9.4999999999999996e-01
    1.8999999999999999e+00 -9.4999999999999996e-01
    1.8999999999999999e+00 -9.4999999999999996e-01
    1.8999999999999999e+00 -9.4999999999999996e-01
    1.8999999999999999e+00 -9.4999999999999996e-01
    1.8999999999999999e+00 -9.4999999999999996e-01
    1.8999999999999999e+00 -9.4999999999999996e-01
    1.8999999999999999e+00 -9.4999999999999996e-01
    1.8999999999999999e+00 -9.4999999999999996e-01
    1.8999999999999999e+00 -9.4999999999999996e-01
    1.8999999999999999e+00 -9.4999999999999996e-01
    1.8999999999999999e+00 -9.4999999999999996e-01
    1.8999999999999999e+00 -9.4999999999999996e-01
    1.8999999999999999e+00 -9.4999999999999996e-01
    1.8999999999999999e+00 -9.4999999999999996e-01
    1.8999999999999999e+00 -9.4999999999999996e-01
    1.8999999999999999e+00 -9.4999999999999996e-01
    1.8999999999999999e+00 -9.4999999999999996e-01
    1.8999999999999999e+00 -9.4999999999999996e-01
    1.8999999999999999e+00 -9.4999999999999996e-01
    1.8999999999999999e+00 -9.4999999999999996e-01
    1.8999999999999999e+00 -9.4999999999999996e-01
    1.8999999999999999e+00 -9.4999999999999996e-01
    1.8999999999999999e+00 -9.4999999999999996e-01
    1.8999999999999999e+00 -9.4999999999999996e-01
    1.8999999999999999e+00 -9.4999999999999996e-01
    1.8999999999999999e+00 -9.4999999999999996e-01
    1.8999999999999999e+00 -9.4999999999999996e-01
    1.8999999999999999e+00 -9.4999999999999996e-01
    1.8999999999999999e+00 -9.4999999999999996e-01
    1.8999999999999999e+00 -9.4999999999999996e-01
    1.8999999999999999e+00 -9.4999999999999996e-01
    1.8999999999999999e+00 -9.4999999999999996e-01
    1.8999999999999999e+00 -9.4999999999999996e-01
    1.8999999999999999e+00 -9.4999999999999996e-01
    1.8999999999999999e+00 -9.4999999999999996e-01
    1.8999999999999999e+00 -9.4999999999999996e-01
    1.8999999999999999e+00 -9.4999999999999996e-01
    1.8999999999999999e+00 -9.4999999999999996e-01
    1.8999999999999999e+00 -9.4999999999999996e-01
    1.8999999999999999e+00 -9.4999999999999996e-01
    1.8999999999999999e+00 -9.4999999999999996e-01
    1.8999999999999999e+00 -9.4999999999999996e-01
    1.8999999999999999e+00 -9.4999999999999996e-01
    1.8999999999999999e+00 -9.4999999999999996e-01
    1.8999999999999999e+00 -9.4999999999999996e-01
    1.8999999999999999e+00 -9.4999999999999996e-01
    1.8999999999999999e+00 -9.4999999999999996e-01
    1.8999999999999999e+00 -9.4999999999999996e-01
    1.8999999999999999e+00 -9.4999999999999996e-01</inv_output_scale>
  <weights>
    <_>
      2.5996652914858505e+00 -1.1730272981592722e+00
      -2.7911459885651652e-01 -1.6131393994246450e+00
      1.3249968002831305e+00 1.0477996457394356e+00
      -1.1887392339051188e+00 -3.8261158751130235e+00
      -8.9400809526322822e-01 -7.5429884846730511e-01
      9.7588373340733392e-01 6.1720896494895483e-01
      2.7267305799392587e+00 2.4273541047193712e+00
      -2.9141966587280022e-01 9.3198382895373677e-01
      1.4423702204669862e+00 -9.7366950310139533e-01
      7.4558639573667063e-01 2.2098058861084402e+00
      1.6540660304921919e+00 -7.6332947975056109e-01
      -1.0541386014856845e-01 -1.9092213538813965e+00
      -3.3634307281630846e+00 -1.7489920123059308e+00
      1.1881374944971625e+00 -1.9279373851625972e+00
      1.0934205098820404e+00 3.0666825021773692e+00
      -6.3758875458099906e-01 -2.3909356019629544e+00
      -2.6720719787139202e-01 -1.6896589706445264e+00
      3.1234961466213895e+00 7.2771923937763763e+00
      -9.1272958288400083e-02 1.9629413503113688e+00
      -9.2948343165451941e-01 2.6456993982458830e+00
      1.8023241040029823e+00 -2.2149758042708769e+00
      5.4898737963980115e-01 6.3398500198251329e-01
      3.0008869881170210e+00 -6.8574904564636163e-01
      -7.1445407558856977e-02 2.3333306307226007e-01
      1.1472919566708562e+00 2.7020793063970863e+00
      -2.2830088242467755e-01 -1.5286407175519343e+00
      3.0719222031907165e+00 -1.0686029450399417e+00
      -5.1070897826877104e-01 -1.5628917266953395e+00
      -3.2815109841945609e+00 1.1656857726758467e+00
      -1.0267849047642652e+00 1.5169221425644130e+00
      -9.3272383985568597e-01 -2.1934501339772599e+00
      -2.4455006132392340e-01 -2.7768244227202903e+00
      -9.1371499845370563e-01 -2.6722586874045751e-01
      1.5194689997783133e+00 -9.3797696933756047e-01
      -8.6240529433156909e-01 -6.0657642917189702e-01
      7.4303534586683984e-01 -8.0032921909015931e-01
      5.5898870030684444e-01 -1.5673106620910600e+00
      1.6656026314426142e+00 -4.9517476668491234e-01
      2.0813366064733235e-01 1.2367518834156719e+00
      3.9916812318633599e-01 1.4810384189866796e-01
      2.2081007342740757e+00 -1.2599482970091149e+00
      1.4190752569289680e+00 -1.4490789481573305e-01
      2.0373710946795223e+00 7.1324084747665961e-01
      1.6416280463598982e+00 4.3368761197856753e-01
      -3.6401333324524748e-01 -5.2010309465581203e-02
      -6.7061882355304869e-01 -4.2377527971780840e+00
      1.6842330305623003e+00 1.6803690078779241e+00
      3.6250505987965875e-01 1.3798646696249515e+00
      -3.0251987500681063e+00 1.2168948752660407e+00
      1.2331687280746157e+00 -5.5654313406778499e-01
      -4.4454168644115013e+00 4.4372773136547679e+00
      1.3776469103415395e-01 -6.7165512804672944e-01
      1.9187354071335296e+00 1.3460726069091191e+00
      7.8026090409912563e-01 -5.9217196444681519e-01
      1.5521817749396642e+00 2.8330428681234348e+00
      2.6906262751908523e+00 -8.4426271892432470e-01
      -4.7240609226201284e+00 -1.2886045085547904e+00
      1.7969261750137586e+00 2.7444084635379928e-01
      1.8139529697447732e-01 -3.4697991622349200e-01
      -2.3396743922387381e-01 2.1869834178992633e+00
      4.5320466449458232e+00 2.1792192108509969e+00
      1.9226266637122605e-01 -5.8623535110577230e-01
      1.7057972454644768e+00 4.0275033730132579e+00
      -3.9757961843220846e+00 -1.2872690375893963e+00
      -3.6634355326345336e+00 2.5737891146011935e+00
      5.5079607231127365e+00 3.3270571102279232e+00
      1.0659937927772480e+00 -1.5923853698734214e+00
      1.9087325779309516e+00 -3.8481027348536814e+00
      -2.2706039164406335e+00 -3.7419295834430790e+00
      -3.3155400749908548e+00 3.2839954894343029e+00
      9.9872241560052283e-02 -7.4763671926530613e+00
      -9.6996391255660586e-01 -3.6967832893320809e+00
      3.8985101643416344e+00 2.0268415364805437e+00
      8.7448187758811837e+00 -2.6318569943568564e+00
      3.1498068730477016e+00 6.1491894796651101e+00
      4.5625691261114876e-01 2.9956888233210348e+00
      -6.2709008509185553e+00 -3.2425293154284378e+00
      -4.9420396410521308e+00 -1.9856133222275871e-01
      5.9020692203610654e+00 2.6443209714545621e+00
      4.2238092798558720e+00 4.2055096072951761e+00
      5.1509352274666966e+00 -7.8272234374195753e+00
      -5.2305798660212011e-02 5.8365237708017892e+00
      2.3451909955362114e+00 -1.8496290124356041e-01
      9.3845578888359804e-01 -1.9940082607008163e+00
      5.4836343619012118e-01 -1.5309240548563019e+00
      3.2407065624845299e+00 -5.7502144776661446e+00
      9.9433790827480995e-01 -2.8965611285132313e+00
      5.2422730874493544e+00 -4.3115105922875763e-01
      7.1419606747897169e-01 6.0111995668805041e-01
      2.3045850155043235e+00 1.4538906115484271e+00
      -4.4054128351933421e+00 -5.3593354934931101e+00
      1.5075099748506984e+00 -9.7369226961742594e-01
      -3.2189995153306730e+00 1.4978921714390239e+00
      -9.3643620445118059e-01 -2.2717620551550088e+00
      5.8961859010201012e+00 -2.1840591500597428e+00
      -2.6837564777068836e+00 8.2872495185585677e+00
      -2.3474310137805019e+00 -4.9097326641433020e-01
      3.8592936142400154e+00 -7.9842949607907354e-01
      -1.6375503627661767e+00 8.2104843155870788e-01
      6.3882592780668346e-01 4.5185538255258857e+00
      4.0047546615173211e+00 -4.5385339485706302e+00
      -6.7789172168297762e-01 4.2344020491357961e+00
      -2.2284105301697594e+00 5.1153660883474072e-01
      5.8441883989339338e-01 -1.0258436558773392e+00
      6.4909402185334486e-01 -6.4527917204218372e+00
      1.9727585541139847e+00 -9.4601008820071864e-01
      2.7798297082476497e+00 7.1402790520228432e-01
      2.9206338607772842e+00 2.0762230433069226e-01
      3.6913386138329835e-01 1.3716667909417690e-01
      7.7529102114301729e-01 -3.7365062670892507e-01
      4.1784061293800239e+00 -5.2635507569794857e+00
      -1.6582698013553816e+00 -4.4798122922892714e-01
      -1.8882945864252347e+00 1.8676176678948835e+00
      3.0005474643125010e+00 -2.0412605808806825e+00
      1.3427733630421941e+00 -6.3752575588470819e+00
      -3.1572341653626528e+00 5.4186737178814814e+00
      1.7440710276926541e+00 -4.1112569865327746e+00
      3.5064831518118660e+00 -3.0847384096364414e+00
      -1.5179081643319874e+00 3.2808308194842155e+00
      2.9889287779503433e+00 -1.0971367107033405e+00
      5.3172130962616508e+00 -1.9098134086413396e+00
      1.9296076198038052e+00 -3.8492080514820328e+00
      -5.3206035441232480e+00 1.6310469497561306e+00
      -2.6652978933856946e+00 -2.9006936511476922e+00
      1.3013879484043819e-01 -2.4474822792483528e-01
      4.1263992642747898e+00 9.9323539325161612e+00
      -3.4719734161072924e+00 -7.2628595400059828e+00
      5.4082983741595339e+00 -7.0966501500640060e+00
      -6.1144337925242649e+00 -7.0352154099163702e+00
      -1.6124114596540093e+00 4.0378704371532892e-01
      5.2363046438392189e+00 -2.2797628214268815e+00
      -3.9131331072765971e+00 -4.6947676664540641e+00
      1.4321271684081596e+00 1.5384302487857029e+00
      7.1571510974501829e+00 -5.8921975165461649e-01
      6.9635328454838374e+00 -1.8999087181029037e-02
      8.7348488488942644e-01 -2.2482183618056775e+00
      -9.2380676635334369e-01 -7.4686808228101684e+00
      1.6418740653823194e-01 -3.8963632902601359e+00
      -3.1390392747843854e-01 3.3093759171370327e+00
      -4.4570459698255910e-01 2.9665990712221166e+00
      2.1629594953196199e-01 -2.0047205428870662e+00
      -2.8522127847255421e+00 -7.3507838550567223e-02
      -1.2912210760660614e-01 1.7673088615056054e+00
      2.1678115649917920e+00 8.9459093064619555e-01
      2.0119972561221422e+00 1.1494796839281913e+00
      -5.2309544610579917e-01 -1.6004387166069118e+00
      1.9145256208432937e-01 5.1641592566169847e-01
      1.8547931966134636e+00 -9.9500447798262451e-03
      2.1764065085895439e+00 3.3440151421774860e+00
      2.7692558193990511e+00 -2.1964101479439554e-01
      5.3474041232895408e-01 -1.6666793351560605e+00
      1.0260603384364927e-01 1.6007602678370405e+00
      -6.3915057300166267e-01 -1.7976467217710730e+00
      -1.4950720208576643e-02 3.4143827951215971e-01
      -1.4399571506541270e-01 7.4193388456519738e-01
      1.2268662934305983e+00 3.3248479446038286e+00
      -2.3032041885586172e+00 -2.7193045143340233e-01
      1.9378112203282154e+00 -6.3319663581319208e-01
      -2.8125558426240689e+00 1.6684638072950277e+00
      -1.0326191753033804e+00 -1.6086274798619923e-01
      -1.4856563121513098e+00 -8.0077699994175955e-01
      1.0817356178110607e-01 -2.0721929941122244e+00
      1.8823246437188548e+00 -9.6155835331403017e-01
      1.3737624780796853e+00 4.0047332690724069e+00
      -4.3558784222409747e-01 -7.0486806071676311e-01
      -3.0901146201368673e-01 -7.5440221278755204e-01
      -2.0679494681375085e-01 6.7427952830949944e-01
      -1.2187755128877222e+00 1.0235059994194458e+00
      3.0748473697360152e+00 1.9677917731516255e+00
      2.7192850846200605e+00 -2.4253548924812964e+00
      9.2727332818077615e-02 6.8088653990259274e-01
      -1.2588760799304477e-01 8.3083205765659784e-01
      3.8766078666947430e+00 -1.3628089103962424e+00
      -2.5774588044967244e+00 -1.5622699064109014e-01
      1.0068150415971036e+00 -1.6637772374785964e+00
      -7.3127856221540377e-01 1.4207524393771280e+00
      1.2311060694572049e+00 6.1082305790796998e-01
      -1.5175820264194297e+00 -3.3590320502768902e+00
      -3.2370600424624572e+00 -3.8712462595579842e+00
      -2.8300433894556865e-01 -2.2498034913700664e+00
      1.0804793774793253e+00 -1.9208016719169809e+00
      -2.7423662157171830e-01 -2.3042247617417841e-01
      -4.8418198490029960e+00 6.1836892282986788e-01
      -5.8941822513577580e-01 -2.8806746013375606e+00
      -7.6959776957118822e-02 7.2156268412385749e-01
      -3.5527367859661713e-01 -1.1450533405940364e+00
      -3.8079134309066165e-01 5.6985939340542335e-01
      -4.2800092792008632e-01 -1.8299041331106745e+00
      -5.2045844467268998e-01 1.4046274898826654e+00
      3.2818986649437609e+00 1.0328788834874271e-01
      2.4965948149947561e+00 1.0268699379961563e+00
      -3.0479495672895967e+00 1.1406368235210056e-01
      -2.8331310426224487e-01 3.9057331596013201e-01
      -7.0858496529734444e-02 -1.1748002698354258e+00
      -1.2763559152475339e+00 4.2300181485136719e+00
      3.1081628498319158e-01 4.7905299698942250e-01
      -3.9492464855506337e-01 -1.6848075049768022e-01
      -1.5434035279457510e+00 9.7608679179695432e+00
      1.6919900263666376e+00 4.0310628642456575e-01
      5.3846346555511360e-01 4.3330273353433152e-01
      -2.1605667852547135e+00 1.8421833996789543e+00
      -2.5028763554007667e+00 -1.6354341620675499e-02
      1.8503589641197735e-01 -1.0168982356058218e+00
      1.4467617876778094e+00 -1.7785916228446416e-01
      -6.3770613625123174e-01 1.5351995548475295e+00
      -1.8400058718861665e+00 -1.5073656997508162e+00
      2.3865408214833530e+00 -1.6617092608873765e+00
      -1.1610304272652827e+00 1.2019921387835155e+00
      1.1060602378951006e+00 -7.7299280973291751e-01
      -2.1093663000504574e+00 2.9453609159623291e+00
      -3.1100620692473790e+00 2.1967601503471452e+00
      -1.9538392821733102e+00 1.7604388649936512e-01
      -2.2694748051141893e+00 6.4016730649531328e-01
      1.7892534614348152e+00 -7.6929866730686414e-01
      -1.4584369449290627e-02 2.5253327038652973e-01
      -6.7087677315166561e-01 1.4029406154206920e+00
      -2.4842810647715212e+00 1.4036480794736910e+00
      -1.9585072403521466e+00 -3.3333765442321728e-01
      -3.9814867909167506e+00 -1.8513289101276829e+00
      2.6825670778357291e+00 -8.8093521150516407e-01
      -2.0599062635925112e+00 2.0872699292490524e+00
      1.1056052098487583e+00 -9.3132654747402210e-01
      -2.5736342912591975e-01 9.6965671176659129e-01
      1.3167777006310033e+00 2.0332588232299305e+00
      1.4922687509675417e-02 -4.7359702175536644e-01
      -1.3290626222977691e+00 -8.3738328528649508e-01
      -4.2479393667751197e-01 -2.0941138241442578e+00
      1.8118059057320726e+00 -1.2201568643882805e+00
      4.2635393001963529e+00 -3.7444714929623810e+00
      -2.8832614535053747e+00 4.7885030763306058e-01
      -2.5987811827112166e+00 2.4710683429457134e-02
      -1.7655575322498107e+00 -2.3369262820940913e+00
      -7.5088462464780084e-02 -5.9773921011509190e-01
      -1.1093938618341410e+00 7.3260367610876365e-01
      -5.3635803443235841e-01 -1.5900117866061705e+00
      -2.0923497494403012e-01 -1.1974947253286519e+00
      1.2504541735426971e+00 -2.3046379630503959e+00
      -2.0579984407730829e+00 -1.7963531864907514e+00
      1.2300667535699825e+00 -2.6078847183404369e-01
      -2.2010115078905388e+00 -1.2751731314464612e+00
      -2.5977478485059868e+00 1.0268581700179713e+00
      2.1295088646896061e+00 1.8771204536078998e+00
      -5.4031322766361418e-02 -1.8112227542727486e+00
      -1.7362117918813851e+00 -1.6387840868209849e+00
      -4.5494697181616928e-01 1.5355240948581053e+00
      -1.0411853671270244e+00 -5.8989792741151126e-01
      7.4409543903519493e-01 4.0454034238834433e+00
      3.5830359953280877e+00 -2.3018046781616528e+00
      -1.8711347597952782e-01 -1.1993026785345571e+00
      -3.0817504742747723e+00 6.6562454149823724e-01
      -4.6703717901989723e+00 1.5350765657439647e+00
      3.8529834388164758e-01 -1.4879394452169967e+00
      3.8108778535068477e-01 6.7680069946392885e-01
      -7.2530822957594010e-01 -1.1523096357454294e+00
      2.1671765841800070e+00 -1.6380808384458603e+00
      2.1393044964703014e+00 1.4532338133324714e+00
      -4.4069919641056216e-01 -8.8232849319553019e-01
      -4.5480644272068833e+00 -2.5911181419875384e-01
      9.2358801986400263e-01 -1.7250629617710680e+00
      -1.8388319163329581e+00 1.9729555682858479e+00
      -1.6344377348559620e+00 3.3396157809615584e-01
      2.2837353212970206e+00 -4.9581943928883465e-01
      -2.3264409620513784e+00 8.4646985316026757e-01
      -2.5549070558552622e+00 -2.2341478754912663e+00
      -1.9091307806588687e+00 -1.9535983607022886e-01
      -1.2628523831154082e+00 -2.6552153836521764e+00
      -4.5144846218198866e+00 1.6812891341183618e+00
      -8.0017590458501542e-01 -3.2306942641364285e+00
      -9.5280053220635419e-01 1.1379798558392569e+00
      -3.9638539749083339e+00 4.5173951879872315e-01
      -5.8846294300422752e-01 6.3702001976077471e-01
      -1.0133319541702654e+00 1.4910929849536185e+00
      -4.3435724459338060e-01 -3.6376337298646071e+00
      -1.3203831121374501e-01 1.1838654905539523e+00
      1.0917723854315784e+00 2.8705588333775955e-01
      6.7855939243311472e-02 -3.3766360033792475e+00
      -1.7469018094836346e+00 5.8595879321753785e-01
      -2.8954513191547115e+00 3.2018353497226513e+00
      -6.9939771259788708e-01 9.7373136239223057e-01
      -2.1352747370426330e+00 1.5972929913524683e+00
      4.0141556250653938e+00 -5.7124977659102649e+00
      6.8182999885125251e-01 1.6256889566794955e-01
      -2.4580535143095137e+00 1.1635587966724020e-01
      1.5469004595149327e-01 -1.7403268796829623e+00
      7.7359311365263594e-01 -2.3929013592813471e+00
      7.9058218970526478e-02 -2.1939855990715356e+00
      -6.3219510535446757e+00 -4.2178686076723243e-01
      -1.3131045692063106e-01 -4.6142078945636494e-01
      2.9260297538660303e+00 -3.8576733187075091e-01
      -7.3402097085470404e+00 1.0881073804227226e+00
      -1.6077774224067896e+00 -2.0545570688073775e+00
      -2.2623276671214607e+00 5.9858275374217162e-01
      3.6625317075415614e-01 -2.4423027493276326e+00
      3.7442365014423133e+00 1.2940674561265246e+00
      -2.4029927381660694e+00 3.9602819816862322e-01
      -2.4082712340958441e+00 -7.5600934569777378e-01
      -7.1351125597719034e-01 -1.2551866905711890e+00
      -2.5994330394271370e+00 2.4716874598582295e-01
      -4.2295431974156451e-02 2.2862143992151589e+00
      3.7257257275869877e+00 5.8806552122118871e+00
      1.8247084665629887e-01 -1.5044406811229112e+00
      -1.2923768279335949e-02 -1.2107671741708097e+00
      1.5356874819461290e+00 1.0574950956930220e+00
      -6.6221050684435290e-01 -1.3840181500978550e+00
      2.7875264994709750e+00 -9.3035421537450835e-01
      -3.2454071081752276e+00 -7.7931047517827867e-01
      -1.5615025619804914e+00 3.2330009605512555e+00
      1.1969255001758081e+00 -7.0889176787506547e-01
      -5.0807306937944370e+00 6.8873189271227719e-01
      1.5544438215546557e+00 7.5424283364244660e-01
      4.5298782973982048e+00 -1.7320634383468949e+00
      9.6934991564070885e-02 1.1167943820587467e+00
      1.4030187047784942e-01 6.0495222393160930e-01
      4.3847294118904506e-01 3.8302990683023932e+00
      1.2308103391894949e+00 7.4303754111934150e+00
      -2.5810568278247201e+00 -2.6681587820361954e+00
      3.7369371575182209e+00 4.5081196317073857e-01
      1.8030854563764018e-01 1.9201124374121477e+00
      -1.6671038648258569e+00 -8.1720433326266639e-01
      5.9682447747094458e-01 2.9484501701708412e+00
      -7.1864190233386049e-01 -1.2876347055244126e+00
      -1.0965028958513436e+00 -2.2167496417676560e+00
      2.9802137439010687e+00 5.3138272171731249e-01
      -3.9665070797378954e+00 -1.1220936374223172e+00
      3.6408918309957383e-01 2.5458424893130145e+00
      1.8609383629184355e+00 5.7013065468708319e+00
      -7.6961318795893641e-01 -1.7442348889029573e+00
      1.2213610591244759e-02 -9.3349275774321305e-01
      -3.0798314218178069e+00 -3.8453856809720444e+00
      -8.3588519364276981e-01 -2.2108118429141626e+00
      2.8167197898167950e+00 -1.9649976803590972e+00
      -3.6550533992788403e-01 -3.6414472299092155e+00
      -5.4326220105117673e-01 8.3386576277081542e-02
      4.5529835472990028e+00 -1.1884133832094124e+00
      -3.4148519006327877e-01 3.4064542808859102e+00
      -1.7334182130000282e+00 -2.8974769110152829e+00
      -4.7591221253519409e+00 -1.0486761762380230e+00
      7.1039696268611430e-01 4.1293628379765774e+00
      4.7584808330730812e+00 -3.6729175758071548e+00
      -4.6476866476488699e+00 -2.3625659649635353e+00
      4.2450128314279860e+00 2.3509651304090053e+00
      9.9562710222409812e-01 -3.4631963678835911e+00
      1.1014730787918372e+00 -7.3251729483541084e-01
      -1.7803415366344462e+00 -6.3811451322659127e-02
      -2.2188568158870985e+00 9.5988599201502356e-01
      -5.7934459293865748e-01 -2.3102033787022269e-01
      1.9204891425522141e+00 -4.4002757851706082e+00
      -1.2759836942188258e+00 -1.4972331164926733e+00
      2.3445232127638609e+00 -3.2926565105229222e+00
      -2.8839110678062156e+00 2.3087250034103071e+00
      -1.0342505428501743e+00 1.0521785126364560e+00
      -1.5900974017306269e+00 -6.8275678135947870e-01
      3.6078463789527806e+00 1.0483559343103694e+00
      3.1442737092867592e+00 3.3481223241902112e+00
      -1.0731410851932095e+00 -1.2683370906833583e-01
      1.3866874211390086e+00 -2.7629575804636581e+00
      -1.5126284211604901e+00 6.5842806329001513e-01
      -6.6997550677305295e-01 1.0373604787079915e+00
      2.1605697403156219e+00 1.1517728251553150e+00
      5.7289801931449136e-01 -3.2787267653084093e+00
      -1.1589492760639815e+00 3.1289697467490778e+00
      1.2466905856555568e-01 -2.8790967056964178e-01
      1.5905963270316816e+00 -4.0220473977322085e-01
      5.9630617516605451e+00 1.5704681389823609e+00
      -1.7519375808157263e+00 2.8829611058293794e+00
      -1.4304621265946669e+00 -4.9452854474801400e-01
      1.7420827035288786e+00 -5.6946247994225407e-01
      2.6389538135094712e+00 -1.7027563290395251e+00
      -4.0387398288329651e-01 -1.4456288551080030e+00
      -2.4865336442056480e+00 3.2148844615500816e-01
      9.8341842138617708e-01 3.6600416786292640e+00
      1.6976979089455336e-03 3.7300617602040740e+00
      4.0403405116835316e+00 -1.1271296782175984e-01
      -2.3263776004835113e+00 2.3864617251518943e+00
      1.2186930113276375e+00 -1.6052121340248189e+00
      2.9074826313166957e+00 -9.9514632698597594e-01
      8.9019433007985560e-01 2.1505021297946856e+00
      1.7045830135347924e+00 2.5074273192354966e+00
      2.6908375778588989e-01 -1.3441489449385631e+00
      -2.1570591266632966e+00 -6.9515477893393551e-01
      -1.9870241797476320e+00 -2.6082858426227545e-01
      2.0578281501648812e+00 3.8156512220881811e-01
      6.0171359151541171e-01 1.4715522490559898e+00
      4.3034084963734012e+00 -4.2114744695163481e-01
      -1.6804542340352542e+00 -1.1006432974037681e+00
      -9.1574412452054832e-01 4.6911708879815599e+00
      3.9667916265806071e+00 2.8273641915693797e+00
      1.6023358240505858e+00 1.4417138533126179e+00
      -1.7875292180379214e+00 1.5713719533028105e+00
      7.8396402643658492e-02 -2.9278194263254749e+00
      -3.5845075675355081e-01 -7.5251755187634925e-02
      -2.1757465246930643e+00 3.6322754970454268e-01
      2.4619601735536674e+00 -9.2568126699139319e-01
      1.1022203688457510e+00 1.8538754194248921e-01
      1.6808986260680110e+00 -6.4579113494683671e-01
      1.4724077578585841e+00 -9.7073865072727183e-01
      4.8729936833032889e-01 -2.3935568628046213e+00
      9.8556040190717020e-01 -9.5644858696934909e-01
      3.4056808408894925e+00 1.7112205670478138e+00
      -1.4122176400736639e+00 -1.4661464742865871e+00
      6.8531299962121051e-01 -1.4955320169335473e+00
      3.4745416929497253e-01 -1.2472137858048242e+00
      -7.5022101768256180e+00 5.0023431912602268e-01
      -2.2900257042402021e+00 -1.2726407803968810e+01
      9.5328904347433341e-01 2.4474416464089157e+00
      1.5397692135852614e+00 -1.5752118961459496e+00
      6.3369265507434408e-02 -8.9627039075333503e-01
      -3.5485482928764247e+00 -1.0045034001192885e+00
      1.3323312842816806e+00 2.1938277706029026e+00
      3.7609646976972559e+00 1.0726662853663806e+00
      -1.5456051101924509e-01 1.6010160078732127e+00
      -1.5886019143283430e+00 -8.6364977089326311e-01
      -2.0077525144520831e+00 2.4347363896791219e+00
      1.4748631929167455e+00 -2.6307517211680485e+00
      1.2954482171026978e+00 -5.8932050217737264e-01
      -3.0962474818317789e+00 2.5139433065329788e+00
      -1.0305601596605194e+00 8.6365070528698618e-01
      7.7791539542646404e-01 2.9204033363237519e-01
      1.4831101973649909e+00 -2.2832557251798566e-01
      6.5190662429867249e-02 4.9294269139499995e+00
      5.0502512979318392e-01 -1.0160331135996072e+00
      1.1529693253584474e+00 1.9947214929301629e+00
      8.7656842913045574e-01 1.0839329903813590e+00
      1.6110467663212431e+00 4.4432018547137425e-01
      -2.4130431889995416e-01 -6.6690633574773850e-01
      1.4752172491965057e+00 7.7344004557109403e-01
      -4.1724401873066175e-01 6.6085911524489171e-01
      1.7181176536532285e+00 -4.7389255521421858e-01
      3.3195824592837169e+00 4.8039821525001780e-01
      2.0302856030614588e-01 5.1377589935476531e-01
      -1.3399893252770920e+00 2.4976468545585249e+00
      -1.0252981022536083e+00 1.0562427030326174e+00
      1.2033119265351144e+00 4.3166818858008565e-01
      -6.2889404490590162e-01 3.7313400042847128e-01
      -1.7683562192323452e-01 4.6705979060695324e-01
      2.5359042044564970e+00 8.5252586236960559e-01
      7.2500495968284423e-02 3.3361524955771926e-01
      2.1316839356660822e-01 1.8533840418688527e+00
      -8.9644694621074250e-01 2.2592276429751830e+00
      -2.9182786421982765e-01 1.1928130756968236e+00
      4.8695159051843090e-01 3.9866082111314229e+00
      -1.7680082469501093e-01 3.1800638871672153e+00
      -3.5073116181566770e+00 3.0850945487739247e+00
      2.1651416299872781e+00 1.2644155205150192e+00
      -2.3094766488802043e+00 -1.4201880085588856e+00
      1.5462391825435187e+00 3.9080518098735373e-01
      4.0374971399814841e-01 -1.7610390649304497e+00
      -1.7410779538134649e+00 2.3576778973052517e+00
      5.7062330619592370e+00 2.7006377523193739e+00
      5.5764920202783475e-01 1.5740172791224383e+00
      1.1900270488914122e+00 1.7107784665797146e+00
      1.3942593719685969e+00 3.4198905287959152e+00
      -3.2783716021369176e+00 1.8645183557697391e+00
      -3.1593236438732202e+00 2.4359352571001289e+00
      -1.0140613665010387e+00 1.1508736225761265e+00
      -1.1245371070358706e-01 4.0832297141290761e+00
      -2.0243754029690156e-01 2.4101377581717648e-01
      1.5488153480512763e+00 -3.6961659721478766e+00
      -1.5528794524138636e+00 6.2786358416692695e-02
      1.3824742690173786e+00 -1.7923239793880905e+00
      -3.1588065534511434e+00 2.2414434842318709e+00
      -3.1651775506951596e-01 -5.2985802081210009e-01
      -2.8750656370909260e+00 -2.8183225631661033e+00
      4.9341497501900307e+00 2.5965062520578286e+00
      -3.1278276258203785e+00 -1.4196522638226525e+00
      2.1055431055456246e+00 7.7577027227219109e-01
      -1.3724367302968015e+00 4.2759559002266485e+00
      2.8833021346838077e+00 6.2658213461152501e-01
      7.5857245472830801e+00 2.2672125822703375e+00
      2.4781049378070619e-02 2.4647183974416924e+00
      -4.9889520626807393e-01 2.6833495133666809e+00
      -3.6197143228247697e+00 2.9171625127370078e+00
      -2.5300817637691360e+00 1.5097051479562240e+00
      -1.3125396103965601e+00 -4.8981114848777354e+00
      -2.5858574837072830e+00 -9.8413434856584533e-02
      1.6733311211360320e+00 -1.9463242151245235e+00
      8.2111735590937263e-02 -3.5096010597765170e+00
      -1.2227878344549430e+00 -1.1572449486042116e+00
      4.6986725966236165e-01 1.8527265146729810e+00
      1.2315235161843677e-01 1.9569254438839165e-01
      -5.7423940974937935e+00 -1.1615176054129542e+01
      3.5942338880620865e+00 6.1060883153029077e-01
      -7.7337313239453094e+00 6.9750609600961377e-01
      2.5811711201550001e+00 -3.9028934268542576e-01
      6.1442246433320369e+00 -2.9064016126624463e+00
      -1.4063267515361577e+00 4.9996728987417827e+00
      4.0880333681529226e+00 6.8940513618498267e+00
      2.1050157122310265e+00 8.8596358017006049e-01
      -7.9189100724656294e+00 -3.7902502300528251e+00
      -5.7881847224389449e-01 3.6871358875394957e+00
      -5.8755712488589955e+00 7.3965330409191710e-01
      4.8097732366496548e-01 -7.4057696039920173e-01
      -1.5880229254517817e+00 2.3999200109469268e+00
      -7.4478525341172419e-01 -7.1188843715955104e+00
      -2.6504231941130643e+00 -1.8087724013822886e+00
      2.5959020612316541e+00 -1.0560834818464051e+00
      3.1921233124986167e-02 1.1189679693200671e+00
      9.5064975022858222e-01 -4.8532068144985834e+00
      -5.2071233040776264e+00 3.0968851072843093e+00
      -1.4285222917395120e+00 -1.1293942339915388e+00
      -8.1576200449880487e-01 -1.5523423223230099e+00
      1.8342056105832165e+00 3.3923237580880015e+00
      -6.6845708717765484e-01 -9.2170844909427629e-01
      -7.1294218552385480e-01 -5.4707891837341738e-01
      3.5542874528416939e+00 4.0953070107198295e+00
      -2.3145870448817929e+00 -2.3831668384749864e+00
      -4.0511771313832046e-01 -3.6300294703039215e+00
      3.0588128971343536e+00 5.1065456397435138e-01
      -3.2545909905434605e+00 1.8161546359799801e+00
      2.3315858260713265e+00 1.1494695798525858e+00
      1.3765814323164340e+00 5.8352224975190692e-01
      -1.8342119684765439e+00 4.3867596631557859e-01
      7.4207764117230790e-01 8.3414977515648636e-01
      -7.9172642095975687e-03 -6.6632683122296736e+00
      2.4495350011250969e+00 2.2569557596683225e+00
      2.2812556704568552e+00 -4.6412998221257259e-02
      -2.3720670896773619e-01 6.7422571915692819e-01
      -3.1931704492508399e+00 2.2756316971302222e+00
      2.2985348374922478e-02 4.8664951753782484e+00
      -1.7763351059894215e+00 3.5620149772694361e+00
      -1.0621954754325600e+00 2.1024125789615233e+00
      -1.8036257276868966e+00 1.4784654376903947e-01
      -1.4450388675185848e+00 2.2023015098108365e+00
      7.4036275421535469e-01 3.4789250106838367e+00
      -3.4281109404303818e+00 1.4765723929293557e+00
      2.7100570339212355e+00 1.4271640929621667e+00
      -2.0582684667003073e+00 -2.7114158638736909e+00
      -3.2586672865695818e+00 2.4400410983014083e+00
      2.3729807817739652e+00 2.6824485425192774e+00
      -1.9574252066078568e+00 -3.7571930338129795e+00
      -4.6348555322535562e-01 -7.0559115667945194e-01
      -2.6562430481322746e-01 -2.5343171795311084e+00
      2.2595347150886274e+00 -2.0939133419615991e-01
      4.0368021267148185e-01 -2.4678522903705651e+00
      3.5584649101213306e-01 2.0367791593289488e+00
      -2.4154089091227617e+00 -6.5592643671922246e-01
      -1.8155908180483165e+00 1.9456926170448086e+00
      3.4050820022675787e+00 -1.9158714979783442e-01
      -3.7571218564861852e+00 -1.1221637474131232e+00
      2.7707602867464649e+00 1.1379388471084018e+00
      -2.2486597867449709e+00 -1.3653117963655932e+00
      -2.6962479154106861e-01 -1.5431656270983392e+00
      2.1731868264963666e-01 7.6978811672575598e-01
      6.2908176619264555e-01 3.9726459948531406e-01
      -2.7492648231568091e+00 6.0065062042263040e-01
      8.3586492153974776e-02 1.8724453600107867e+00
      3.5655649556431381e+00 -3.7184590699537421e+00
      -5.0464401722119778e-01 3.0159141308510202e+00
      5.3304889563334141e+00 3.5801557922614529e+00
      -1.1067761778767791e+00 4.5482990382921773e-01
      -1.1604552693324499e+00 -2.9685427423151092e+00
      -1.4966063841819286e+00 -2.3014468802347086e+00
      1.4040078147349051e+00 9.6048872116719919e-01
      1.2646567356501959e+00 1.2421091868695269e+00
      2.2745004880750375e+00 -5.4012409991229887e-02
      -3.5241211160769890e+00 -9.4323378563969984e-01
      1.8912247089478103e+00 -1.7616834923410554e+00
      1.7263924622819085e+00 1.7543241661110340e+00
      -5.1883840314900598e-01 -2.1138401359016514e+00
      4.7005147641753497e+00 -6.3239171878869904e-01
      1.4330011810473589e+00 -4.3577770651870723e-01
      2.4326961505061168e-01 -2.2550823884277422e+00
      -1.9455926831734589e+00 2.5543948025297185e+00
      -4.9728950212298212e-01 -4.9869270487752843e-01
      -1.4392897697208551e-01 2.0835043028233269e+00
      1.0752310025040845e+00 -2.6515831823640063e-01
      -1.2653053575539372e+00 -4.3873188656467752e+00
      -3.8936001324578240e+00 -1.6569056082440474e+00
      -1.5849403910960649e+00 2.3553202863149321e+00
      1.9932382004946607e+00 6.1434670770716104e-01
      4.4108321616695068e-01 -2.3846708480476280e+00
      3.2352475640027345e-01 -1.4954341108142175e+00
      -1.2390077518819562e+00 1.4724353439002804e+00
      -6.1706042799589989e-01 -4.7556940151481808e-01
      1.2059568286787561e-01 6.8836576591358600e-01
      1.4156318183396704e-01 -6.3051778421494764e-01
      -1.2207396603007117e+00 1.6523347784002085e+00
      2.0864839322347555e+00 4.9320097398674340e-01
      2.7550249644002767e-01 -3.1779526598098435e+00
      1.5198826079416117e+00 -7.6292988429044095e-01
      1.0160455277743414e+00 5.1760747202413993e-01
      3.3450612696982635e-01 2.5941328297962962e-01
      -5.2540329004787001e-01 -9.9532069416334967e-01
      -7.1282920267504124e-01 -8.3699051207279596e-01
      1.1367899124599257e+00 1.5791756790367746e+00
      5.3777833379484119e-01 -1.2219732230612181e+00
      -1.9586019577868092e+00 -1.8163263963751755e-01
      -1.2997921987094032e+00 -7.6979270266878663e-01
      2.0858591359090650e+00 2.1853895905393625e+00
      2.1007673863819694e+00 2.0048867754314044e+00
      5.6992383068825836e-01 9.8139420782049980e-01
      -8.9029486050819018e-01 -1.7253821743580386e+00
      2.3982082638351141e+00 1.4125464382721756e-01
      4.9395523181218348e-01 3.1064082058282949e+00
      -1.9589379528390867e+00 -1.9662244642279100e-01
      -8.7828545356921195e-01 5.3024896341874084e-01
      -3.0427257369585115e-01 -6.4124456083665737e-01
      5.2805573949476170e-01 3.0535670472950677e-01
      1.9590260619248783e+00 1.5083180571893848e+00
      7.0580711778216454e-01 1.8910134688006641e+00
      1.5111627388538496e+00 -1.3559761532191341e+00
      -1.3066777097372100e+00 -5.5979417000900089e-01
      -7.3441130729880966e+00 -2.6985191609920994e-01
      -1.3085366425771998e+00 -1.0314678438501234e+01
      3.1636457055432687e-01 1.5020607079303951e+00
      1.1261358155867871e+00 -1.7248410471135585e+00
      -7.0318804310850036e-01 2.8726233186264455e-01
      -1.0762616384263326e+00 -1.0403035607575957e+00
      2.4731648796110210e+00 -8.3300433866785861e-01
      4.2039080714287751e+00 -6.9883675512563370e-01
      2.2576048077729656e+00 1.5500637040615908e+00
      3.2458264623293809e-01 -8.0034824539403152e-02
      -2.0497663337547123e+00 1.8043338189067111e+00
      1.9883948189665817e+00 -2.6730118026752487e+00
      1.0533738318358710e+00 8.1942682932559063e-01
      -2.3797548784207816e+00 3.1524402711280577e+00
      -3.5128635816829692e+00 1.3952013832550397e-01
      -5.3034617473450866e-03 4.0312817936629736e-01
      2.2969704350426272e+00 2.5193689803516159e+00
      -6.3826589410657097e-01 4.8854178680016780e+00
      -1.8588213432872820e+00 1.1716495852898932e-01
      -9.9740707232504777e-01 -9.7785194512210061e-01
      -2.0870715672021697e-01 7.9265546284657018e-01
      2.1877042291980300e+00 7.1784898042114231e-01
      -3.5483390602692806e+00 1.3014952878342645e+00
      7.8484416584823982e-03 5.2131537881668813e-02
      1.3094046114787377e+00 -7.6283727382080357e-01
      -1.2891446764705379e+00 7.8579546623995034e-01
      -1.4042713098962754e+00 -3.1615619532783659e+00
      1.3753979062222343e+00 8.4697461356709869e-01
      -5.2059433880344697e-01 -2.0094897432549779e+00
      8.7518267423055707e-01 1.9019146484480776e+00
      -1.5207472955429282e+00 -3.7127137279672962e-01
      7.6935187759768853e-01 -6.4469816833546523e-01
      -7.3991480389535302e-01 -1.1702882420898404e-01
      -1.2219809314411028e+00 -2.6878708650129721e+00
      -1.7297632026023539e+00 -1.7223973246968836e+00
      2.1282289770768609e-01 -7.1796840458360855e-01
      8.0748455567839239e-01 4.9342425729964412e-01
      3.8234469418954906e+00 9.4271473891952207e-01
      -1.4751396135338701e+00 -5.4126380593830907e+00
      1.0090239730331771e+00 5.9212662472424238e-01
      3.1868737314264955e-02 -2.1995549491533386e+00
      6.6599576144853811e-01 -6.9694873057190887e-01
      -8.5164375282654123e-02 3.7071501192462519e-01
      -2.1367774979961349e+00 3.1881636750951552e+00
      2.0049918265144457e+00 5.6612755564389694e+00
      -2.4081739037341761e+00 1.9666838151529564e+00
      -2.2427587281576647e-01 -3.8242297222903550e+00
      -3.2023390617621450e+00 -3.0347189432105641e+00
      -3.9269711870326440e+00 -5.1591743393139022e-01
      3.3168791739509942e+00 1.1906345632162028e+00
      -3.0738155419492412e+00 1.4319221760543785e-01
      6.3838639618824122e-01 -2.7892604364877087e+00
      2.7523423744458630e-01 2.0936539061558632e-01
      1.8864582128945839e+00 5.3306562509060884e-01
      5.3726072827144495e+00 -7.1832181876959866e-01
      -1.0212832700770129e-01 -5.7810123209731679e-01
      -4.6026142134404348e-02 2.4927593165234110e+00
      2.6939773877386290e+00 4.1432229311279456e-01
      1.1807953055242510e+00 1.2496631994710108e+00
      -1.5340890320480898e+00 3.8395937276218297e+00
      -2.4650989181506624e+00 -4.5403260754472843e+00
      -8.3168196802480290e-02 1.4954151874490846e+00
      -1.3555795629211667e+00 -8.6840436737496052e-01
      -4.6605335419065991e-01 3.0029893874415037e+00
      -2.5756247938335513e+00 5.0719019279544697e-01
      -5.9001188187396441e+00 1.1611383347099595e+00
      -1.8917452941682398e+00 2.1127623203847739e+00
      -5.0340302919348190e-01 -8.3002131618101771e-01
      -4.1895132463789544e+00 -1.8444894982648565e+00
      1.2165972657319943e+00 -4.2533915563165205e+00
      -3.7517639246845973e+00 3.8791369257771340e+00
      -3.2754272244732343e+00 1.5656859962717022e+00
      6.6070947524538388e-03 -6.2668977410199944e-01
      3.9777009717108776e+00 -4.6911964670257578e-01
      -2.1911436138217208e-01 -1.2252294128182477e+00
      -2.8488889411481455e-01 -3.2674195807749307e+00
      -1.0148572400952067e+00 8.9906301533994115e-01
      4.7016837425680578e+00 8.9761206999204346e-01
      1.1588593134293785e+00 -1.9083535806948300e+00
      -5.3167422086106464e-01 -5.9979831368132919e+00
      -2.9087272620501992e+00 -1.8642077711355240e+00
      2.7200937105248899e+00 -3.1684301675455644e+00
      -1.3430091654437817e+00 -1.3508471674870293e+00
      1.1245829742476059e+00 -4.3217069872553143e-01
      3.4861897826963144e+00 6.9483712042439039e-01
      -1.2174423910312724e+00 2.7756551938566396e+00
      -1.1095478202527485e+00 1.3738452044421152e+00
      3.4810901979041260e+00 -8.2626888791750452e-01
      2.4597892024893242e+00 -7.2379756543666440e-01
      1.6936810336447869e+00 2.3687391858893876e+00
      1.0756964263113502e+00 2.1779080609728529e-01
      -8.2204517262593724e-01 -2.4903320485804614e+00
      -5.2968434681011832e-02 -1.9411221207002829e+00
      6.7261480400649254e-01 4.2006334787507500e+00
      -5.9900513352966270e-02 2.4292465355290118e+00
      4.7995093162739524e+00 1.2222968090393436e+00
      -5.3112526366704476e+00 -1.0026288921682154e+00
      2.8377994597162579e+00 -1.2573329834651685e+00
      1.1147537175153586e-01 -1.9336149414344743e+00
      -1.0348540572114899e+00 2.3917989099620871e+00
      1.8613341702627744e+00 1.9275807756683869e-01
      2.9688495607580383e+00 1.5540330581703812e+00
      4.5133759821717484e-01 1.6917313160983198e+00
      -4.1428585182221495e-01 -1.1095940514073965e+00
      1.7211831426826205e+00 3.4115698624023700e+00
      1.8828570852443297e-01 -2.3664878129446643e+00
      3.3618885176590343e+00 1.2340790800891654e+00
      2.1847943285083025e+00 2.2734706053766454e+00
      9.6921348850759925e-01 2.7088717536392055e+00
      -9.9252071548945853e-01 3.1768747227373719e+00
      1.3162999166107422e-01 4.4625693720473159e-01
      3.1494608564679707e+00 -2.4120079497253100e+00
      -4.7081896552328963e+00 4.2177476269517300e-01
      -8.4453241397800882e-01 -2.4614387213828710e+00
      1.0104251326505007e-01 7.8250329384299666e-01
      -2.2229136684581561e+00 1.5279389873530711e+00
      -8.1236014855195759e-01 -6.4482883030395488e-01
      -1.4067441715270323e-01 4.3234348585703219e-01
      -2.6779205436136553e+00 6.2476326534638416e-01
      9.4407265905916291e-02 5.4151764892635272e+00
      -2.1796227895502032e+00 -4.1153057107505848e+00
      -1.4724104900706365e+00 7.5659654544449351e-01
      2.1783880404745659e+00 1.3581313067634515e+00
      -8.4254679643801289e-01 -1.6829451378599569e+00
      2.5735557950659307e+00 1.1130798735000422e+00
      -1.2733732466127650e+00 3.4405233553482311e+00
      4.3455546580666020e+00 2.7331139883295887e+00
      -3.6729367193066659e-01 -1.0954576826486886e+00
      2.6704914135681288e+00 4.1990723993984265e+00
      2.8033859422239167e+00 1.0092674748386636e+00
      2.8935750401867888e+00 2.6991707270503290e-01
      -2.5148973073853015e-01 -3.8845992005577989e-01
      -6.8335660379057499e+00 -1.4029925471784945e+00
      6.4412939588983145e+00 7.2914773619248174e-01
      -8.2403929490833350e-01 5.0181826936444898e+00
      -3.8935085252402994e+00 -3.8688142163200059e+00
      4.3904947729305226e+00 -3.7116691027731905e+00
      -9.9803515740254189e-01 2.0379994539582027e+00
      1.0817233706666529e+00 3.7654609653856086e-01
      1.3678163313396376e+00 -1.2402492240816043e+00
      -2.5281537481376573e+00 1.1528391925140331e-01
      -4.4406215399547938e-01 5.2597939851764897e-01
      4.0246871220497527e+00 -2.8800840819690658e+00
      -5.7002106045694279e-01 -5.6072769352581391e+00
      2.4800486554403536e+00 2.7249464501806733e+00
      2.0414409636732617e-01 -6.1673855366167783e-02
      1.3317970854702883e+00 2.4739834212572720e-01
      1.0373093026281830e+00 -4.0121582711297732e+00
      -2.0418076113833465e+00 4.0642107141866033e+00
      4.0477569544549228e+00 1.7970400065862917e+00
      2.7461344411004021e+00 6.2272866555315287e-01
      -1.0663752572514185e+00 -2.0189588657949264e+00
      -7.1769412018427392e+00 3.3049161513416543e+00
      4.2213080805694876e+00 -2.0431380415677134e-02
      -1.5468797232932465e+00 4.2010750414755833e+00
      2.1032469502638762e-02 -7.0594787774959809e+00
      -2.7275268581929835e+00 -4.0771114870291285e+00
      -8.9581500685640036e-01 -1.3637456706394684e+00
      8.5613218871307439e-01 1.7622066803150203e+00
      -3.3196046333239142e+00 2.0593082810906996e-01
      -9.3800141093018519e-01 -2.1814869788395730e+00
      1.2784517918974092e-01 -2.0639761447686773e+00
      2.9677322021410619e+00 -3.5344060487172664e+00
      -3.2950366039523193e-01 2.1044933977971805e-01
      5.9547552982219649e+00 5.5601785205012160e+00
      1.7929280212304926e+00 5.2272372510164242e+00
      -3.1492750852444691e+00 -1.3776937572292756e+00
      1.4907319902305125e+00 -9.2924411329512990e-01
      1.5864812289473496e+00 4.6483127943226661e+00
      4.2316395879309987e-01 -3.0913864485817072e-01
      3.0128702427696492e+00 -8.0419144862235437e-01
      -1.4080341809127328e+00 -2.3695420176865806e-03
      -1.5917804273486578e+00 2.5589360122213387e+00
      -2.1505425723398877e-01 -8.5219084532618627e-01
      -3.6650949751567188e+00 1.3740198659425991e+00
      -1.9717406587601113e-01 3.8871620328537831e-01
      -5.6721826268693687e-01 1.2784340642276104e-01
      1.6191799634663393e+00 3.1814898855860489e+00
      5.5476977844616115e-01 1.4140636681468832e-01
      5.2602427098884019e-01 -2.8719086901251895e-01
      -6.9331927413290595e+00 -1.5433936083161135e+00
      2.2127435949902996e-01 -8.8803769205050234e+00
      1.3180311977762977e+00 3.5415077795979721e+00
      6.9999072785263750e-01 -9.7967344056013894e-01
      -1.0024207400415750e+00 1.3332775819497003e+00
      -5.8175038069071716e-01 -3.0066178297910418e-02
      2.9610359673340563e+00 3.7847649609828236e+00
      8.1081542647267069e-01 1.8590298254960478e+00
      2.3176579722633499e+00 8.1885249334450372e-01
      -2.0987644411530512e-01 -3.0222099920075829e-01
      2.1979227531581227e+00 1.7334876769320837e+00
      1.7507161646127270e-01 1.8361350725359971e+00
      -2.2431798556726577e+00 -2.0218070878908828e-01
      -2.2687959253760384e+00 4.3842701144150809e-01
      -3.3293357637762422e-01 -4.0477949117205264e-01
      -5.4887646920960287e-01 3.3185579602551579e-01
      1.1133519115575118e-01 1.1681068233652674e+00
      4.0854806775752739e-01 1.2558340010843116e-01
      -1.1477292255497535e+00 -7.7687204683302147e-01
      -3.8787746033906478e-01 -5.0079807160515111e-01
      -5.2674178772560127e+00 -1.4677384958726760e+00
      -1.0815748652191435e+00 -2.5619020226601772e+00
      1.4170380187004150e-02 1.1231273749808446e+00
      6.0064572595279520e-01 1.7378713911897932e+00
      5.4856586424149711e-01 1.3352499509024764e+00
      2.2050678187077568e+00 -1.4776297806766630e+00
      1.4103566907083600e+00 5.8683526061026203e-01
      2.3671329971544908e+00 2.0568131083176522e+00
      5.6340006024098321e-01 -1.5268739746190056e+00
      -1.1553742067540709e+00 -1.9362330408144033e+00
      -1.6107509209575570e+00 1.6950957179509509e+00
      -1.3257307807322111e-01 -3.3692476826508906e+00
      1.1898260429904339e+00 -3.3061056701863523e-01
      -6.5019424683420315e+00 -2.0622678730248944e-01
      -8.3920074891341756e-01 -1.2689344751131519e+00
      -3.9809794139961924e-01 -2.9393979975368266e-02
      -1.0186759526863078e+00 6.6138524919191843e-01
      -2.6061922164929312e+00 5.5253036563058888e+00
      1.8695414440251394e+00 -1.8484220865068359e+00
      -1.0572706198025875e-01 -1.0183618122293645e+00
      -2.2540982670065843e+00 -1.9529333529686388e+00
      -3.1726282759609776e+00 -2.3921559916977726e+00
      3.6952324778658876e+00 -1.9009242877925894e+00
      -4.5204754069094805e-01 1.1565086079913278e+00
      -1.1643530639914557e+00 -2.7656563101099536e+00
      1.2509441221112774e+00 -1.7178713406995387e-02
      1.4667502801781958e+00 -7.1943064266383572e-01
      -2.1611113305277017e+00 -2.9341941570729047e+00
      -8.7937985131576069e-01 -2.2784294249854877e+00
      1.7723967309531952e+00 5.5833261467483986e-01
      -1.5963488395038890e+00 1.2261744709676125e-02
      -4.7402300567077565e-01 -9.2122814475369217e-03
      2.2362021308000180e+00 1.9187169196924374e+00
      4.4902283080065059e-01 1.1361267895564340e+00
      -2.3509216141530179e-02 -6.1154459507638614e-01
      -2.9498288655739433e+00 -3.5675732313620903e+00
      1.8902824197365500e+00 -4.2020623196389186e+00
      1.2133426075900218e+00 2.8119613222087971e+00
      -5.5832805904740779e+00 2.3654092298768346e+00
      2.0556346940299544e+00 -3.2518641485303479e-01
      6.1403361478742047e-01 -5.7287664439655712e+00
      1.8067785446704387e-01 -3.6481190617155557e+00
      4.1701801672703231e+00 2.5863083373792342e+00
      -1.8210133714178296e+00 2.6507918905968220e+00
      -5.3178758479813002e+00 -3.6901533219238227e+00
      1.8018949209925014e-01 -4.0879010376123173e+00
      -1.9742898880826514e+00 -5.8628748424871038e+00
      -4.5034179501737173e+00 -4.6288700980639002e+00
      2.8683192172247636e+00 -9.3095803784503808e+00
      -3.7042866544100755e-01 -2.4996923821458501e+00
      -3.8509411034497916e+00 7.4984108649625747e-01
      -1.5791914422605431e+00 -8.8600248985246499e-01
      2.3056146999884031e+00 7.4125046381032780e+00
      -8.5381871906120377e-01 -1.7181131142670052e+00
      1.6783024006209630e+00 -2.3621949257477266e+00
      -1.3977841289540545e+00 -5.2051496646869788e+00
      -3.3737707870815363e+00 1.4200833519097975e+00
      1.2367349343415646e+00 4.0769449379396683e+00
      -2.2516342075181290e+00 -4.2336755116019082e+00
      9.9051579998463291e-01 -3.6665195966764434e+00
      4.9755672310295136e+00 -4.6653565938890784e+00
      2.2105685141858005e+00 -6.2071031661664944e-01
      1.9735415162288898e+00 4.1653747616591135e+00
      -3.4358757182062977e-01 -4.8426088888204760e-01
      -1.4637426757756626e+00 9.5268216863290767e-01
      2.2454660998225955e+00 -1.4541634421378260e+00
      3.5579996096507154e+00 -5.6446181742862862e+00
      -5.3324080303676951e+00 1.4550207169539304e+00
      5.9001201231110989e-01 4.1466276044233741e-01
      -2.4301389806333291e+00 3.3104844896363947e+00
      -1.6270926185044350e+00 -5.0905155157969495e-01
      2.7145471468018569e+00 5.7797049875153450e-01
      -2.4033780838091880e+00 1.3110800991903724e+00
      -7.2257760179941866e-01 -9.9494483251735648e+00
      -9.8185814687310780e-01 -2.3824477219604403e+00
      7.5356195056180775e-01 -5.6955699688459802e+00
      -2.0510976125975531e+00 3.6568362770845471e+00
      -1.6363839845585122e+00 1.2713295055979505e+00
      5.3300941928497343e+00 1.4051093219208197e+00
      -2.9662486742159992e+00 6.2598231523306389e-02
      8.5642246875421311e+00 4.0176365617975562e-01
      4.8111599862919929e+00 1.3075612055481012e+00
      1.4875214070270721e+00 -1.4222120617871019e+00
      4.1613906059900190e+00 -8.9119801430042322e-01
      9.2802680371008712e+00 -2.8683067540319960e+00
      -2.0598736396582860e+00 4.4790852334649669e+00
      -1.0194489656600487e+00 -2.2996823269749123e+00
      -6.8159947798308140e-01 2.6008904951574205e+00
      4.7758724461866606e+00 -2.1547326916903744e+00
      8.4382244181817112e-01 8.2811042950571112e-01
      -1.3094523721050604e+00 -1.8668098598820173e+00
      -3.6362126407059581e+00 8.0222116877522431e+00
      -4.1912469901162291e-01 -2.2419327576041646e+00
      -7.3988588610028074e+00 -3.1227889785651923e+00
      7.7180715483065310e-01 1.3185109017392824e+00
      -1.5391903589260754e+00 5.7126594419768761e-01
      1.2863185308443141e+00 -2.4284759515938505e+00
      -1.2519470824840191e+01 3.3655532277134683e+00
      -1.4863094940291921e-01 4.2026900468210755e+00
      -8.5970258750340955e-01 2.0816941337324528e+00
      3.2166211781774798e+00 7.9550489790208987e+00
      5.5298856832339882e-01 2.2484585359226705e+00
      7.0855302425183952e-01 4.0683145897521920e+00
      -1.7699803342582732e+00 -2.0588033496514844e+00
      2.5971228706856855e+00 1.0665239726367330e+00
      -3.1486052002508260e+00 5.7744368736024878e+00
      -6.4701428405049528e+00 -7.1030783931574276e-02
      3.3035265709532802e-01 -1.5228797724706683e-01
      3.3940685972385074e+00 8.0707311344787112e+00
      1.5516651941271267e+00 -6.7496584616476136e+00
      -7.3619397639069140e-01 -1.2522459674597513e+00
      -5.5962556564056571e+00 5.6746525428027015e+00
      -2.6585744022135844e+00 3.6186984785854509e-01
      1.3601123134281394e+00 6.5427495241153659e+00
      -4.6513378629749198e+00 4.6967134379537221e+00
      7.8609529743554436e+00 -1.0974212367191118e+00
      -2.9835106642053710e+00 -2.3502364551761947e+00
      -5.1352651894539543e+00 6.8512592584336094e+00
      5.4845774091848154e-01 1.0234747280612519e+01
      -1.8382431189187629e+00 6.9193780248688119e+00
      6.0311910910802979e-01 1.6031348101460643e+00
      4.4689576732348713e-01 5.6386208585004987e+00
      3.7574118612988361e+00 -7.9657340477493055e-01
      -1.9339097251670141e+00 -3.3685805546979850e+00
      1.5670512492162700e+00 7.1609304044987701e+00
      1.3856687970211374e+00 -4.2536331382405574e+00
      2.3991047613469485e+00 -4.8487848389703814e+00
      -1.9612354809168323e-01 -1.7742084564553506e-01
      9.5772104693644677e-01 3.4765800374131537e+00
      -1.1813272034047866e+00 -1.3293595792715304e-01
      -7.7854000374199792e+00 6.0606763372790260e+00
      1.4812146356225253e+00 1.0274539347575279e-01
      -3.4904994448549460e+00 3.1680641586570446e-01
      5.7735673929119926e+00 1.4886441421935562e-01
      4.8582874329499837e-01 4.7306956344974016e-01
      -4.7208054237496135e+00 -4.3440312044723193e+00
      3.1445519891029505e+00 -2.0362729035394418e+00
      -1.5692219247585990e+00 -1.2703418495387708e+00
      9.6259084817719290e-02 -4.9954629324223693e-01
      1.4428576615986328e+00 5.7229093290346773e+00
      -5.5068449866923674e-01 2.4838883791057613e+00
      2.1459387147089366e+00 9.4305565620761822e-01
      2.9183967804077886e+00 4.4888022628427193e-01
      -3.0974729109982326e+00 -2.6856333230373481e+00
      1.6184399999648105e+00 -5.1913323072254691e+00
      1.0082294338795332e+00 -3.8875174672370476e+00
      5.4401800484431693e+00 -6.0680345162404752e+00
      -1.7149614184642137e+00 -1.6181071464968648e+00
      7.2745557520459483e-02 -6.6762150194852099e-01
      -3.3121783336590287e+00 -4.3640861396029934e-01
      -5.6756142505853973e+00 2.3820329817876890e-01
      -2.1311326145074712e+00 4.8396781941818467e+00
      2.2149379781790053e+00 4.0083143335044918e-01
      4.7239765897744759e+00 -2.8088830120460853e+00
      6.6377123887624312e-01 -9.8512707022014412e-01
      -2.8561437038811230e+00 1.6479321647137926e+00
      7.1555948530424711e+00 8.0297075991621447e-01
      -1.8248054508621887e+00 -6.9125617997142283e+00
      7.4926038075350321e-01 -1.1693990832397196e+00
      -2.6891295178532242e+00 1.4972553192729547e+00
      1.2374698188991460e+00 3.6819500257297708e+00
      -2.1026664051748116e+00 1.1453422225616874e+00
      -5.1404602688058865e-01 1.3654959511883693e+00
      7.0673174635083946e-01 5.8380809120214927e-01
      -2.3767826798103164e+00 -7.7206345298439183e-01
      1.0965981186984102e+00 -5.0451064708707616e+00
      2.0217582701462131e+00 -4.5900346676373882e+00
      -5.0227472812773022e-01 1.0521463929031301e+00
      -2.5116701055314543e+00 -3.2996454632719923e+00
      9.3394450631528880e-01 -2.0843015914609575e+00
      -3.7894049303610009e+00 1.5127283447952620e+00
      1.4328698702082872e+00 -1.8145292018405768e+00
      3.4800758588611638e+00 5.3071177420767868e-01
      4.9975134242215491e+00 -1.2122198800804820e+00
      -4.6585899082484570e+00 -3.8449294520869648e+00
      -4.6318132020503349e+00 4.5668549959084697e+00
      6.3160519199692713e+00 3.0156948580265950e+00
      2.4489467316658029e+00 -5.4367246872303587e-01
      8.7046121683094710e-02 -2.4915028987267948e-01
      5.0674517751065273e-01 -5.0708408232685598e-01
      -7.6967855725955143e+00 7.8991223983995973e-01
      -4.1931481796526171e-01 -4.1516771091422239e-01
      1.7151398739958175e+00 1.8150108711490420e+00
      8.5325522905910933e-01 -2.2138829916208662e+00
      1.3803535812976351e+00 8.0488824320449504e-01
      -1.4925044369324378e+00 -5.9673759174935892e-01
      7.9325588624267007e-01 1.6637934823261504e+00
      2.7623287329824944e+00 2.1756684048487198e+00
      3.5125316189923417e-01 1.7859597218862113e+00
      1.7406216257503848e+00 1.2742011390564656e+00
      -4.7005866475756780e-01 2.5148772262446100e+00
      -1.4724756580432248e+00 2.1114505906106928e-01
      -2.1861455488414498e+00 -2.3568250085712922e-01
      4.7845500655572654e-01 -9.6783254297076723e-02
      -3.2820707011640760e-01 -5.2381963127497355e-01
      -1.6060835210937026e+00 1.8767867107496894e-01
      2.7485888680503638e+00 1.9853063521280387e-01
      5.6654961222519215e-02 7.4257862692931020e-01
      -8.1645329799112998e-01 4.5571504103482574e-01
      -1.5369701112514461e-01 -1.7916513054132741e-01
      -6.2381185945968696e+00 -3.2020605936365061e+00
      -1.4407258097414393e+00 1.3934670544640979e-01
      1.1541262506206713e+00 4.7249922736208794e-01
      3.5607352953313315e-01 -2.9152160315583631e-01
      3.3360721537083857e+00 2.1623776961929367e-01
      -1.9899819864023809e+00 -4.8646156824616443e-01
      3.5650627756842197e+00 -1.6017865121562860e+00
      2.7934892077996656e+00 1.9738459044431813e+00
      1.6703623462743378e+00 6.3544711887605765e-01
      -1.3185884464255342e+00 2.0909680637653563e+00
      -1.2325771478764023e+00 1.4110110802374110e+00
      1.4426167612425669e+00 -1.4604801965135972e+00
      1.5465953674689243e+00 2.5499268391542942e+00
      -2.4805987081518102e+00 5.9163310120067614e-01
      -6.8305070045978589e-01 -2.3655314301197164e-01
      1.7273810931154925e+00 4.2053563002483294e+00
      8.2030005179764151e-02 3.0448297323109679e+00
      -6.1148469797380955e-01 4.6095303629207116e+00
      6.2140226574232937e-01 3.8570158095512710e+00
      -5.4337969208185155e-01 2.5595135646499969e+00
      1.0464326881333406e-03 2.9372925662580620e+00
      -6.3626808310440752e-01 -1.7667687840906252e+00
      4.1246235794768733e+00 -1.3419443844225343e+00
      2.7063392427627102e+00 -1.9402785421644941e+00
      -3.9985510578448404e+00 -4.7794660327260147e-01
      -2.3827105768383272e+00 -1.4244243574551141e+00
      1.4006585462323415e+00 -5.6881470185120409e-01
      -4.1693551569327358e-02 -1.0968832739653815e+00
      1.6212215135679975e+00 -5.3243184283980902e+00
      -1.1303337972599721e+00 1.8508044991717287e-01
      -3.8872350136853190e-01 1.5363481613318493e+00
      2.3642331101497596e+00 -1.2398367375669299e+00
      -9.9147411180593037e-01 2.0060975288298577e+00
      1.2607031182095931e+00 2.0933219543614716e+00
      -2.2754245772453810e-01 4.8327385110894272e-01
      4.3194076390744807e-01 2.2117493268029831e+00
      -1.3098185849586088e+00 1.8878817863705128e+00
      -2.1319213998447752e+00 -1.4087580052284734e+00
      -1.2540234797332628e+00 4.4825351909965255e-01
      -3.8743640297846621e-01 2.6732459264551428e-01
      1.1010224824866723e-01 2.4201503640423803e+00
      2.2340043013093869e+00 -1.4860353642884554e+00
      4.5931638524036975e+00 -2.7290707406107337e+00
      2.9097323713083090e+00 -2.7506408289248423e+00
      -2.8741640499245031e+00 -2.8594680788932664e-01
      -4.5078580140975821e-01 -7.4836027549015069e+00
      3.0371644631461274e+00 4.6000415083614872e+00
      -1.4401302953921347e+00 4.7747959774186857e+00
      -4.7413900911510320e-01 -3.6774771438805636e+00
      -5.4806876362239247e+00 -1.1057311334444729e-01
      3.8411629019803293e+00 2.5784105324136370e+00
      1.1302735811331124e+00 -7.0984790543549914e-01
      6.5188572642772469e-01 -1.1487542519776537e+00
      7.5411244840155627e+00 -1.1221053698765480e+00
      -4.2995350244476684e+00 -3.2758052338005195e+00
      -4.3790273843452718e+00 -4.4139140076539324e-01
      3.3988697377274901e+00 -1.3902385261184804e+00
      -4.2339162134137203e+00 -2.7930725533960739e+00
      -2.2373510210436689e+00 -1.8123760419076824e+00
      -9.1682015507296222e-01 -1.9991068781128876e+00
      -1.7328989803788413e+00 5.1744126369943544e-01
      3.6013072932549650e+00 -3.2017755081974458e-01
      7.0151292306501645e-01 2.0296411087964579e+00
      3.4070108335696965e+00 -2.7458787683128998e+00
      -3.7514214479739185e+00 -1.4230209260117430e+00
      1.1458083538039134e-01 4.4069001940389746e-01
      9.9602956719781388e-01 -6.5694394794524213e-01
      -1.6704786127226319e+00 3.5621946174955501e+00
      3.8785255119852931e+00 -3.1131632527096551e+00
      -4.5712747310425978e+00 -5.0859678065493910e+00
      2.9219787544782130e+00 4.7320034752614148e+00
      5.5451515823931565e+00 -4.5504761734079455e+00
      6.4168186791943613e+00 6.0057872516197461e+00
      1.2856228811006468e-01 -3.9232821029519671e-01
      -4.0354981665575201e-01 -1.8414608932774175e+00
      -1.2438879733301389e+00 -9.8635910760134810e-02
      4.1811699269534657e+00 -2.1834448673596092e+00
      -2.9560591777172065e+00 2.4910549576041650e+00
      1.7725744986724428e+00 -6.3891657439852043e+00
      -9.2041103872653263e-01 3.4456690989522759e-01
      7.2606971150127046e+00 5.2987771293820005e+00
      -2.3645914289992587e+00 3.5684481125287110e-01
      3.8966480430561817e-01 4.5523597835955716e+00
      1.5097641613285220e+00 7.3564408496857183e+00
      -6.1737283068395277e+00 -8.0481040381350279e+00
      -2.2366617402033975e+00 5.3702046925105078e+00
      2.8317976392335917e+00 -4.5395180694551778e+00
      3.4575537115013877e-01 6.0152131813084093e+00
      -1.8441095679262161e+00 -4.9991566585261955e+00
      -4.2020800875436599e+00 -8.1327055207681873e+00
      -8.7796606338326610e-01 8.3600141650645976e-01
      -2.8116846924570358e+00 3.4183194113796018e+00
      1.9078137386966727e+00 1.3000758405861901e-01
      -5.1255416207474100e+00 2.3331927659856930e+00
      3.3937821921447369e+00 8.3219136119066695e-01
      2.9273193229970711e+00 -4.1556903058246042e-01
      -3.5152431986498036e+00 -1.2764649992877173e+00
      -1.6329808919496331e+00 1.4848317450436954e+00
      9.8124454777709680e-01 3.1658027863167222e+00
      -6.3986018602831540e-02 -4.6659571268882827e+00
      -8.3734361775935662e-01 -9.2091117631975994e-01
      4.3334449407522522e+00 -1.5971266116439302e+00
      1.7813066472527210e+00 -9.4662967599383618e-01
      2.0110679064074719e+00 -7.5768452085271054e-01
      -3.5314220546181621e+00 -2.5843679920884024e+00
      -2.5400314639855965e+00 2.9763435033250500e+00
      2.4122793446795274e+00 1.9287722406878118e+00
      1.8951175775699127e+00 5.2345298957374826e+00
      1.5282828018265104e+00 -5.6007397773178651e+00
      5.2704031601287591e+00 -2.7950195816143735e+00
      -4.2667342309013154e+00 -1.0760890456030106e+00
      -2.5907593794704389e+00 5.5685978109617631e+00
      -2.8346143220696329e+00 -3.0947404935305265e+00
      -3.7263270927513226e+00 3.0576165673534139e+00
      -8.1408064997885310e-01 1.6053794603945861e+00
      4.3050622668502641e+00 -5.6755263276587282e+00
      -3.9285169194297977e+00 -4.6997902004745090e-01
      -4.6157507884088043e+00 -5.0499838852282926e+00
      2.2170010017635313e+00 6.7146419572788663e+00
      3.8556753658981968e+00 -4.4690209724533068e+00
      -1.4939695485638746e+00 -1.2275045223029484e+00
      -5.0567599309682452e+00 -5.6179069627258311e+00
      5.8109151414984703e+00 -7.1801596239483363e+00
      -7.4641126881650735e+00 2.4605384987948078e+00
      -5.3919262674820976e+00 6.7679065469858948e+00
      4.3915865347600294e+00 3.2981544187835574e+00
      -2.4612741873247619e+00 -1.1590823356620163e+01
      -8.1179054426218578e+00 -8.7447823411469361e-01
      -2.3824816808775431e+00 1.1064840066746893e+00
      2.9688840244026813e+00 4.7751366520832565e+00
      -2.0916515800763591e+00 4.0519850816662517e+00
      8.7564604135359081e-01 3.3346782586170622e+00
      9.7173172702451254e+00 2.1362696344258394e+00
      -4.4514645375024359e-01 5.3035407080900745e+00
      3.3844171471695490e+00 1.6089043164516996e+00
      -1.7721847955831662e+00 6.7694760686066493e+00
      6.8484780112473658e+00 6.3821820345642006e+00
      -1.7589193995533712e+00 1.9970831303903205e+00
      4.6301039605972635e-02 8.9014117814052689e+00
      9.1852617176015150e-01 -7.5530572439431598e-01
      -4.1816400338374704e+00 -1.0938536166531765e+00
      -4.9435049599208130e+00 6.4330275371135948e-01
      1.7881632864059100e+00 -4.2712265349127998e+00
      -3.3018523330016518e+00 5.6477946669774566e+00
      -4.6455054404482645e+00 9.7576860517243169e+00
      1.9002684070020461e+00 5.7964871210031772e+00
      -2.2476019655288781e+00 -9.0153538115085077e+00
      -1.8622088882468901e+00 5.5186256426156355e+00
      3.5128080601275271e+00 1.4488453497492759e+00
      6.5895888837727155e+00 3.0933354438493015e+00
      -8.1209205715283179e+00 2.7947085350289989e+00
      3.3994557162585766e+00 -6.4350889632434649e-01
      4.0594054098704806e+00 -3.8555749159920212e+00
      3.6938436680286788e+00 2.8521347697961490e+00
      2.9095294559954747e+00 -1.3518258144559008e+00
      -2.1387889522972001e+00 -7.3651018079300090e-01
      3.8132599472262790e-01 7.6897642936319084e+00
      -2.1240752393707751e+00 -4.9684286157339913e-01
      -1.0796346056438910e+00 1.8342367882934367e+00
      -1.2262700571331799e+00 -1.2891220709764919e+00
      -5.4415444156189141e-01 6.4131365046998390e-01
      -3.0476964346043581e-02 -2.9407922331967495e+00
      3.2685143854974013e+00 2.3919707649950510e+00
      -1.8132758354695082e+00 -1.9524273168473381e+00
      -2.6025288923347767e+00 -2.1789962875867744e-01
      1.8404567126333946e+00 -5.2428301994111837e-01
      -2.1826270268878871e+00 -2.1066126176097772e+00
      -1.2309655612832520e+00 3.1935266093205716e+00
      -2.2208120077170088e+00 -6.2436449852399678e-01
      1.7920373446904707e+00 7.4949919089465378e-01
      -2.6153123601494910e+00 -1.7508743593676028e+00
      6.3982065188164716e-01 2.4452668154112837e-02
      -2.5619946842450791e+00 -1.3807623005418956e+00
      1.7385989668916926e+00 9.0592013712922781e-01
      1.4811778265164317e+00 -3.0628387641940988e+00
      -1.1624576706585263e+00 2.5465904580717393e+00
      -6.1621536631166594e+00 5.4063248143606335e-01
      -3.0919031183461301e+00 1.6727486383442216e+00
      2.8953433879106349e-01 -2.6965964575360437e+00
      -8.1833303498922227e-01 -2.6929640513379455e-01
      -5.1322330570318044e+00 -2.3305636824642493e+00
      -5.4382817938104358e-02 -7.5689095109693544e-02
      -1.3470086204626333e+00 5.3058105808729579e+00
      3.9358018636375786e-01 1.5813392198236036e+00
      -8.4836378574032090e-01 1.5593244791168595e+00
      5.5440511426404149e-01 1.9085778678662702e-01
      -2.2016429810551932e+00 1.6254069782154017e+00
      3.8796290649695102e+00 2.4776678612090173e+00
      3.0987441047345614e+00 4.4635935838309820e-01
      -9.1115741880632217e-01 1.0497742785105737e+00
      -2.5659700463741069e+00 7.9636791608984858e-01
      7.5728110586472541e-01 -4.3289213786031722e+00
      -2.9545652024584368e+00 6.0205689269654279e+00
      1.6529137869321293e+00 -5.9634045853279594e-01
      -4.4677183310756979e-01 -2.0788722859779857e-01
      -2.1855092880968039e+00 1.3446425405063497e+01
      -6.6095765093074854e-01 4.0635316403236477e-01
      -1.0383405911612518e+00 4.4121309276067668e+00
      6.6666724690363721e-01 1.5016301561028617e-01
      -5.8823391578394092e-02 -7.2387605714699610e-01
      -2.7667090996096504e+00 -2.3983208958743668e-01
      -1.2491545316932600e+00 2.8240624966937794e-01
      -1.2012267902091691e+00 -6.7307938742866183e-02
      9.4702563424214570e-01 7.3200839281790298e-01
      6.1202664154172415e-01 4.5140196937557331e-01
      -2.6630996280472052e+00 3.9370026266104158e-01
      1.2180656209449408e+00 -2.2880874338038559e+00
      2.1686903667421071e+00 1.8826859466204429e+00
      7.0317940274495183e-01 1.4761892311696967e+00
      -1.6184007569643117e+00 1.6145618371533486e+00
      -1.4089567715901685e+00 1.0968992136203686e+00
      7.2732094211377152e-01 -1.3994979206204000e-01
      1.3730671556846201e+00 2.7178276788278630e+00
      -1.9513151175377608e-01 6.1269415990455467e-01
      -2.5403837260558026e-01 -3.6989635764381695e-01
      4.6233703039885327e-01 5.1877636785210068e+00
      6.4665579360630310e-01 7.5954286082846612e-01
      -7.0219518351091714e-01 2.7717463249471828e+00
      -3.2667689867089105e+00 -9.0566674031642577e-02
      -1.3003919150402987e+00 -1.7408372591812842e+00
      -4.4482331127003194e-01 -4.0755758164205753e+00
      -2.3250183528417305e+00 3.7238863826719770e+00
      -3.4880402962803667e+00 -1.9506422822898198e-01
      1.1299262499743759e+00 4.1703250178042695e-01
      9.0135017577699594e-01 2.3021207182278021e+00
      4.5459697517699099e-01 1.1946034473287277e+00
      2.3781100388512395e+00 3.4929711262352683e+00
      -3.2490560849141232e+00 2.1407374756383790e+00
      3.9489571859537581e-01 2.9274153705720316e+00
      -1.9339405260503653e+00 -1.0769625596375898e+00
      5.4191096631351043e-01 -7.0190670852303261e-01
      -3.8131756657128191e-01 -3.0826408997981636e-01
      2.3810848245074396e+00 -7.7290520475787838e-01
      7.9535218134432017e-01 1.5881223448494763e-01
      -3.1215930482994261e+00 -2.7756446976371796e-01
      4.3975728466211613e-04 -8.6520873595543990e-01
      1.2959156269059453e+00 -1.1894791671301923e+00
      -1.4007495621997640e-01 -2.8219955703883248e-01
      1.6734977996113845e+00 -3.6712876524543034e+00
      -2.5049142279886367e+00 -5.8422535037924606e+00
      -2.8146030278902510e+00 -3.4625353984499188e+00
      -2.3010321462531413e+00 3.8432660295074694e-01
      -6.5535945168866387e+00 2.9915018417920267e+00
      5.9612651959216512e-01 -3.5527079833283071e+00
      -5.4650797492394805e+00 -4.0329131110386847e+00
      1.7226232007164213e+00 3.2974248537739541e+00
      3.1647860786501121e+00 4.3334826773576012e+00
      1.0994103693260484e+00 3.3983720582869421e+00
      3.0860908851733733e+00 4.0294041799765949e+00
      -2.9639369874871311e+00 -5.7773353200024691e-01
      7.2036320883131930e+00 8.2621066246332098e-01
      4.7222843804069949e+00 2.1004270349340262e+00
      4.7381104395468041e+00 1.0773294662415969e+00
      -7.0119590191335379e-01 -5.1954295691368726e+00
      -3.3753594265580183e-01 -1.4803631263568471e+00
      3.2618583327153501e+00 1.1907403772857357e+00
      -1.7941738677066317e+00 -3.5817665495377167e+00
      5.7518252734697954e+00 5.3910855319565254e+00
      5.4236687351524004e-01 -3.9721400788727137e+00
      -1.9067980423445317e+00 -5.4895647677059225e+00
      -1.1302256380383234e-02 -3.1018900292292564e+00
      -2.8917216431758543e+00 -6.3191203138736212e+00
      -2.1272188632333360e+00 9.3757570571493121e-01
      2.0954780717138510e-01 -2.2245900218009282e+00
      -3.6819127488125920e+00 -7.5263457203431603e+00
      1.0720090709243568e-01 -7.0826453908970803e+00
      1.7791211744550977e+00 6.2079323780472890e+00
      -1.2948253519556501e+00 9.5757003027226240e-01
      6.6957107369915905e+00 -5.0467884299242494e+00
      3.5812338371935679e+00 3.9137554571865580e+00
      4.3358431459858133e+00 -6.4260690370587268e+00
      3.3165616020173512e+00 1.9958971256976674e+00
      2.6218157931704504e+00 5.4132053372765210e+00
      -3.6553785344968350e+00 -6.1278060600502764e+00
      4.1212405288406497e+00 -4.9738717346710254e-01
      -9.4512110116732040e-01 1.4359726923741105e+00
      6.1041412230846639e+00 2.6439558359693596e+00
      4.9209684599182113e+00 3.0556272457665670e+00
      3.2361822617265430e+00 -4.4100491045396861e+00
      2.6486753148106286e+00 9.3316018427185421e-01
      5.3878328195836789e-01 6.0117481345150559e+00
      -5.6717375471777327e+00 -8.8184366238253697e-01
      1.7620390968459279e+00 1.7558114664337006e+00
      4.9305299938305582e+00 1.5779784509523878e+00
      -1.9442580941394858e+00 -3.9268320009807982e+00
      -5.6655055442919817e+00 -4.3815323369406549e+00
      -2.0746200667410283e-01 1.7495530117342075e+00
      1.5854656880046778e+00 3.2937617202387055e+00
      -3.5382553808524966e+00 -6.5863435615232344e+00
      -6.1368955578991073e+00 3.2414971680071354e-02
      2.1195938015264453e+00 -6.2117577105356736e-01
      1.1296498231225527e+00 -2.2764385531672096e+00
      5.5615377626835389e+00 5.0276446325704303e+00
      -5.0090247757108761e+00 2.4699835596981861e+00
      1.4698202582581086e+00 3.9277798960276072e-01
      1.7009693822974268e+00 3.2898056487068272e+00
      1.0215845567224007e+00 1.0009259103683736e+00
      -5.1874468150671795e+00 5.9284535418467688e-01
      -2.0940010436061924e+00 -2.8993746459147012e+00
      1.3557544570018389e+00 1.2828884216349374e+00
      6.1004760269345204e-02 3.3856457946117025e+00
      -1.5342221051464739e+00 7.9042635123146388e-01
      2.8250435038146442e+00 1.1376727448366961e+00
      2.0380895390575051e+00 6.9818221550353565e-01
      1.0760657701689476e+00 1.3087293177928685e+00
      -1.4745140242991917e+00 -2.0355387227691199e-01
      -1.4391194063351951e+00 1.4247695136415344e+00
      -1.9656629801344729e+00 2.6798250813231799e+00
      -1.1430829783305198e+01 3.3169960694539884e+00
      8.3772145509679474e-01 -6.0633180491178151e-01
      1.2502160551919266e+00 1.1714796558988620e+00
      -1.6184930670098694e+00 -2.3784555219225409e+00
      9.7318765800788753e-01 -7.6905777603601588e-01
      -1.1172324961950155e+01 2.5013663756965046e+00
      -2.4569482115508463e+00 3.8571581167871005e+00
      2.4785189120829667e+00 5.6048603528441581e-03
      -1.4022958829446559e+00 7.3038026889264458e+00
      7.4204119708448752e+00 2.6990610100573562e+00
      -3.1752440591705340e+00 -2.5533914314144628e+00
      5.9214419135229401e-01 -3.1945941509586904e+00
      -2.1481274167316933e+00 9.5532749642790138e-01
      -9.2038486336277692e-01 2.6746765199554585e+00
      -3.5387768946486937e+00 3.9286304192665733e-01
      -1.9524575126548336e+00 -1.8963704482266122e+00
      -5.2526638315344965e-01 7.7943936728753584e+00
      3.1648130263534968e-01 2.5929940675705665e+00
      7.8920501565132206e-01 5.5799713363512700e+00
      3.0284643152862816e+00 -3.2856817463823962e+00
      -6.0699232644229806e+00 6.3391322491296567e+00
      2.6369386266670389e+00 -3.9694500666319361e-02
      -2.8519472361889240e+00 2.8348169060746525e-01
      -6.6223365473187972e+00 3.4726785658098627e+00
      -1.7263433706467060e+00 2.8771132557438057e+00
      -1.2488079613528689e+00 1.3502453922878268e+00
      2.2251333835748506e+00 -5.3076891252101319e+00
      -4.2470269632776283e+00 -1.3359967075675567e+00
      -1.8169483844973990e+00 1.2885658429618621e+00
      7.6576726297866839e+00 -1.5421505341597759e+00
      7.0005621731479950e-01 2.2800073916789647e+00
      -1.9706384299344053e+00 -1.1944110263344740e+00
      4.1596453042692287e+00 -4.0463960677768736e+00
      2.1938216979413223e+00 -3.2793227533197222e+00
      -1.6366337749141744e+00 9.9866575996045392e-01
      -5.1197192994465102e+00 4.0551272416481101e+00
      -4.2904117982541328e+00 7.3799903731415863e+00
      -4.1467758558814749e+00 2.0582894382523058e+00
      -3.3818004471333456e+00 3.8098400296514527e+00
      2.0999008494852389e+00 -3.3801882617343586e+00
      -1.1202644448157899e+00 3.3365858833304518e+00
      -9.1231051507626792e-01 1.1353970088898191e+00
      -1.1214106805095490e+00 4.9188060303006678e+00
      -1.2914055328793856e+00 3.2075521923711028e+00
      -3.4655227565335736e+00 6.5045028127230720e-01
      -2.4620048828599725e+00 5.3726036335590326e+00
      4.8045806559581378e-01 -3.1950464202727087e+00
      -6.7542072538046893e+00 1.1076630850284199e+00
      3.3348077095118773e+00 2.6017520541958028e-01
      5.4929358850550027e+00 3.1866564387673946e+00
      9.7574216967451521e-01 4.0493603409931905e-01
      4.0359944243053281e-01 -2.3093530762403400e-01
      1.7499684622340563e+00 -5.0477211298335627e+00
      5.5307100164789369e-01 -1.1272453025777189e+00
      -3.3504132709753645e+00 -9.1716969114721214e-01
      7.4232198096819513e-01 -1.1100918704025389e+00
      9.3417958003586599e-01 4.5527822369267518e-01
      -4.0255070055758319e-01 4.1622474980626584e-01
      -1.1727402489515770e+00 1.5040313868542463e+00
      -1.3192808553302913e+00 -3.1416739161475884e+00
      1.8138648735906786e+00 3.0428077024670528e+00
      -1.7775574365977616e+00 2.8813109543936997e+00
      -2.9885595430787709e-01 3.6795624022302742e-01
      -3.6855621494120333e-01 1.8129532075640873e+00
      -1.0030047687325794e+00 1.3597816702828720e+00
      -2.0787851984574575e+00 2.5501863699595071e+00
      -2.9346982337049337e+00 -1.7448147063465982e+00
      -1.7282285135057562e+00 1.2126061932901602e+00
      5.5323903378515560e+00 -9.2222793264019401e-03
      2.0077465221874662e+00 -5.9255492019914546e-01
      -5.3809070258265712e-01 -4.6969737114985061e-01
      -1.4515991230780250e+00 6.9618903223990258e-01
      -1.8021965245453697e-01 -1.0318783096085886e+00
      -1.2378683472876575e+00 -4.3066275661161446e-01
      -2.7445907157796401e-01 2.7012935649399892e+00
      -1.4026115015928747e-01 9.3648425081506781e-01
      -1.1480559552572620e+00 1.4007292716140842e+00
      -7.9307249997862017e-01 2.2023791992432376e-01
      -1.9494569900750718e+00 1.2848164401443223e+00
      4.6311074375243217e+00 2.5530103744194301e+00
      3.7193342494801045e+00 1.0025164741643383e-01
      -4.8496328654076028e-02 1.1457990209664964e-01
      -3.3079203914556170e+00 -2.6420261406688472e-01
      -8.8016460545587560e-01 -8.8603343375978849e-01
      -1.7801702838323956e+00 7.4861742892954233e+00
      2.0864758428154395e-01 5.0433864402065454e-01
      -4.8742741624447722e-01 8.5598549154625603e-03
      -9.5437264365802721e-01 1.6360191407599793e+01
      1.9307337796230235e+00 1.6307863156113406e-01
      -4.6908891297595540e-01 4.3505323361663919e+00
      1.0484996287644786e+00 1.1156918269097666e+00
      -3.1694545929973300e-01 2.5929249739473592e-01
      3.5223914300113286e+00 1.4915275673680659e+00
      -1.0470248385636689e+00 -4.3022142636997801e-01
      -2.0022921014993735e+00 2.6884721262539396e-01
      1.2645881938873400e+00 3.6382537816887645e-01
      2.4158627707448588e+00 1.1462687375065312e+00
      -2.7384251962736528e+00 -1.0529220069000038e+00
      1.4427880628843288e+00 -3.2644242972732651e+00
      2.8411636352997577e-01 6.5379448335131807e-01
      1.4826213336929068e+00 -8.4986288020912026e-01
      -3.0674944486131048e+00 1.0656356864939835e+00
      -1.2271594126544185e+00 3.3205025940731869e-01
      -1.1169967351090504e+00 -2.8591013021569092e-02
      5.4434543542784164e-01 2.1327071382386067e+00
      -5.3998250023679228e-01 1.8047582732170659e+00
      -9.7894438932706951e-01 -1.0643124772034052e+00
      -3.6474084839451709e-01 5.1436115086395295e+00
      1.1277630072979965e+00 8.8688726413497843e-01
      3.9839152170052494e-01 2.9699894683878796e+00
      -4.0946272594639815e-02 4.7213354111233796e-01
      8.6115324077342403e-01 -2.4932955274452997e+00
      -1.1109392376250076e+00 2.0155692413737123e+00
      8.3748203024941414e-01 -3.0297403277746757e-02
      -4.2651063011079353e+00 5.6920052713685010e+00
      -1.4427342438793502e+00 -6.2251898300628472e-01
      -1.5913895382406968e+00 8.4293784148731665e-01
      1.9082938359588046e+00 -5.6370940359802502e-01
      7.1003754952946793e-02 -4.4807497133966595e-01
      2.3898602669514482e+00 1.8932647150948678e+00
      5.7926304980843284e+00 5.8244415287841527e+00
      1.6142211606876560e+00 -2.3024556067404069e+00
      1.4374948803858083e+00 -4.4998095766465029e-01
      -2.6320277439207444e-02 1.8883037975746184e+00
      -1.1524180013975416e+00 2.0240398110729636e+00
      -7.4000302613488089e-01 -2.6729380247951138e+00
      1.6851158373221049e+00 5.9936430423091924e-01
      -1.1973443864648157e+00 1.2987865825417506e+00
      -1.0637306937084712e+00 2.5002894651339052e+00
      -2.4210520908706792e-01 -1.8978736248327073e+00
      1.0740919127302309e+00 6.7869845501610893e-01
      -2.9087987370208173e+00 -4.7269436648227243e+00
      4.1701391896219677e+00 -5.7140406889279349e+00
      -4.9022195904065153e+00 6.5000879739786555e-01
      -6.9816497645714204e+00 1.3342276864505591e+00
      5.0165693816509427e-01 2.2212456760859542e-01
      1.6208358746924121e+00 4.6955050434979828e+00
      7.2152391001960163e+00 -4.9069585609227778e-01
      1.6917343697603351e+00 1.1665086249672265e+00
      1.0536592611441158e+00 3.2630708845302914e-01
      6.4363222936803819e+00 1.0976418748050166e+01
      3.3347609860134169e+00 -3.4361899025071660e+00
      -6.4226711940462957e+00 -2.3781216443333477e+00
      -7.9901015284965460e-01 1.2571577459741130e+00
      -4.9282345574931314e+00 5.8104301725658054e+00
      -4.9986702349580288e+00 -2.7294684587942903e+00
      -1.7257251603922730e+00 -3.0752786305543758e+00
      -1.3222956494056697e+00 5.1103960634392891e+00
      3.9197158964303589e+00 4.3717422112172253e+00
      1.0436392507863723e+00 -4.1580457879736326e+00
      5.4128333516724139e+00 -5.8476592336762778e-01
      2.4883794367003191e+00 -2.9683496269780041e+00
      -1.2577020832092922e+00 5.1129509189436400e+00
      -5.4735048146856489e+00 -3.6312337305125869e-01
      2.2609032465972314e+00 -1.1661013665435560e+00
      5.8709465395303138e+00 1.1673594331132160e+00
      -3.1546852891923480e+00 1.9075140455355941e+00
      3.9776635470355770e-01 1.2506497179161404e+00
      -1.1993774728408906e+00 2.0101945617254793e+00
      -2.0724707485697400e+00 -3.3551349742044660e+00
      -9.6173329300389288e-01 -4.5496819594886420e+00
      1.4188197766918613e+00 -4.3960182351462365e+00
      -1.2134601957232045e+00 -5.4367646074462617e-01
      1.3585653912124701e-01 3.2672403349858294e+00
      2.6704002446590001e+00 5.1812948982668336e+00
      -7.7966630329717219e+00 8.6173559528446875e-01
      -1.1393324496294650e+00 -5.1753493315556849e+00
      -6.3802980344169082e+00 2.1157551332655471e+00
      -2.1832998540700426e+00 2.8483368481475835e+00
      -5.5821281481825435e-01 7.4800962534858238e-04
      4.2366955512372340e-01 -9.1209415141382966e-01
      1.8888723779077735e-01 -6.3959040896170771e-01
      -4.3113662666327093e+00 -6.2976487063086972e-01
      -5.9232123333651883e+00 -2.2284622690636310e-01
      1.9144931625056136e+00 -2.7322532981763508e+00
      -7.4481982379387288e-02 -4.4826800020821178e-01
      8.5037848243078062e-01 5.2203642029260477e-01
      -4.7285336586159843e-01 -6.4932388043137013e-01
      2.6372696181775268e-01 1.8376253310369755e+00
      -3.0871266954471817e+00 -1.4048301177537670e+00
      -9.2144521184874701e+00 -5.8028488999371275e+00
      3.5880881938221248e-01 1.4419531184235952e+00
      -2.3066636913795340e+00 -4.3535399285496021e+00
      4.0935932851427970e-01 -1.9785172160241988e+00
      3.4818933486054235e+00 2.9463329487105674e+00
      7.4676604316870976e-01 -3.6535841774252158e+00
      -6.7317117727736442e-01 -9.5346720510084648e-01
      -8.3303461337469298e-01 -2.0750019139105014e+00
      6.0759083711728064e+00 4.3654803479313768e+00
      2.7035187566093941e+00 -2.4857320815499446e+00
      -1.0764870193186358e+00 -4.8594396661363337e-01
      2.9003021549575858e+00 3.0495259230475154e+00
      -3.8857080879284434e+00 5.8590376702033495e+00
      -5.6043297158683361e+00 -5.7487229915816196e-01
      2.1490622343995733e+00 -4.8467538442796115e-01
      5.4188761920617590e-01 1.6496719209843327e-02
      6.5852023717134669e+00 -7.9645231438620112e-01
      -7.4860254636596435e-01 -1.0892837985768051e+00
      1.6674711451321851e+00 5.3473800700647525e+00
      -2.0188346475481351e+00 -3.1119429533598151e+00
      -2.4448719080001644e+00 -2.3357256980238467e-01
      9.8803131563757884e-01 2.0319316221745369e+00
      3.1671935313340978e+00 1.7291191454777253e+00
      -2.7165362943486930e+00 -3.7173518348109726e+00
      5.3713744095741323e+00 4.1682980160230461e+00
      -7.0567776313066555e-01 -1.4247825029385625e-01
      -3.2978499688523205e-01 -4.2564428797603053e+00
      2.5763567395364873e+00 4.6753418022005775e+00
      -1.0437295829644939e+00 3.6039039697664998e+00
      1.7069448121221591e+00 3.4857345180383975e-01
      -9.3687491645447374e-01 -2.2005521649223883e+00
      3.3762053126093972e-01 1.1703416066890402e+00
      9.4648905875592071e-01 3.0722971506633758e+00
      -8.5176764234095745e-02 -2.9329985654400006e+00
      6.5776505897486348e-01 2.3609637792223281e-01
      4.6022016537116184e-01 -2.2237707592371421e+00
      -6.1162066839905096e+00 -6.9583165845462414e-01
      -3.5980771251655361e+00 -1.6979063332466338e+00
      -3.3114805981978859e+00 9.3370054440235908e+00
      -2.8761664946769168e+00 1.2333282906517549e+00
      -9.4559523988455030e-01 3.6263809403722216e-02
      -2.6306420482797330e+00 1.7791960369381274e+00
      6.9733715746843368e+00 -9.7261124533239141e-01
      3.3103281976202781e-01 -1.4170334353983793e+00
      5.1077796339187032e-01 -3.0720799744915084e+00
      -7.7223112359366644e+00 7.4289338624808277e-01
      -2.9006068110326679e+00 2.9280850167987021e-01
      -9.0262442777839236e-01 1.1675646241952233e+00
      1.8031524474048346e+00 5.6911788646595640e-01
      -1.3895614761004911e+00 8.8889601101389353e+00
      1.4875399227619790e+00 -2.5391233227013390e+00
      6.1362812167935277e-01 6.9309520678404724e-01
      1.0105994529630657e+00 -3.4306296558735836e+00
      -2.1621114509072572e+00 -4.3866402563973823e+00
      -4.2975104207449988e+00 1.0357959851032929e-01
      -3.8190204577614378e-01 -5.4547499270219157e+00
      4.1115864114469697e-01 -3.5806809402500317e+00
      -1.4364451747673452e+00 -5.4328907481667281e+00
      -6.4598809692756340e+00 4.0720799315949945e+00
      -6.5385507835642915e+00 1.2159089432513838e-01
      -2.3702541649058828e+00 2.4883068564641637e+00
      -1.2857920975498081e+00 1.2583780559088101e-01
      1.4178540937248807e+00 -6.5457246557372817e-01
      1.9249657785324420e-01 -1.8218930070264077e+00
      2.4059987777740761e+00 1.2586331186557274e+00
      -2.4148152880232177e+00 1.0861071345700319e+00
      -1.9874148089789221e+00 5.4072578265853044e-01
      -1.1882037905643630e+00 6.6710576124524987e+00
      2.4754346868635024e+00 -3.9669331799494865e+00
      -8.7733653227092057e-01 3.9463321172109849e+00
      7.7417811061650432e-01 8.3815653231624920e-01
      -9.5872059987609026e-01 3.2803843600163884e-01
      -1.6260242144948833e+00 -2.2146849945075817e+00
      2.8270296358213653e+00 -4.4010836269095621e-01
      -3.2382027425768065e+00 5.7343375386211481e-01
      -3.2081233207489737e+00 8.4908653109300991e-01
      -1.6648936727136499e+00 -2.4976125825450238e-01
      -1.9985401326312837e+00 -1.3468727201248492e+00
      -1.4444917451799821e+00 1.9251823436789974e+00
      -2.2225831525232009e-01 2.0643118606740991e+00
      7.8617488302388527e-01 -9.2516423824960714e-01
      2.4340220229701299e+00 -5.8447365164993736e-01
      1.6196181350607972e+00 1.2986267002859853e+00
      -7.5822927051652866e-01 2.0895380518324154e+00
      8.6540345154168818e-01 2.6102519593679196e+00
      -4.9570802124737351e-01 4.6234535540558197e-01
      -4.4423833096747267e-01 -1.0301719224333407e-01
      1.2424344066553958e+00 2.5886227940249031e+00
      -1.1762526552573063e+00 2.5508978397985476e+00
      -1.4341866419736067e+00 1.6197896661679750e-01
      1.3580818914473453e-01 -1.1749883797828249e+00
      -1.4644575603400800e+00 8.3537982727929339e-02
      -5.5449734741707735e-01 -2.3440987009706812e-01
      -6.5919977487069459e-01 -5.7422845078154233e-02
      -1.0194087446038282e+00 -1.6028497047838435e+00
      3.3911766920665604e-01 1.4698825861439480e+00
      -1.8454908367688814e+00 1.0383907103518679e+00
      3.4980666420965123e-01 -1.9222558944858886e-02
      4.8265661733265813e-01 9.8134728635267454e-01
      7.8382808413057337e-01 -1.1980301137032225e+00
      4.7478338960848792e+00 -1.7330459505017717e-01
      3.2229902562463875e-01 8.0549485701173729e-01
      -1.8719249406196548e+00 -9.6696609080278539e-01
      7.9557350234327792e-02 1.4807049359770792e+00
      2.8094195507497638e-01 1.0096184759042792e+01
      -4.8272944344275998e-01 2.0981044529194381e+00
      -7.8318798566970549e-01 1.5177433472357563e-01
      -6.5720896599745893e-01 2.1804561384360877e+01
      4.6709398050401857e-01 3.9922398531646135e-02
      -1.5406204747210042e+00 -1.3174493691930061e-03
      1.1015315254439706e+00 -1.2652803735750402e+00
      -9.1244739902756011e-01 -1.1542486885192152e-01
      2.4816177498689909e+00 1.2450067135551943e+00
      -9.1542355147709265e-01 -1.9334390895143283e+00
      7.9552933029871387e-01 4.5076295873061950e-01
      7.0862433335699115e-01 6.0068532800095575e-01
      -4.1435624998121418e-01 1.5685267280947437e+00
      -8.0864388757238193e-01 -2.0987693495462012e+00
      8.9828712233459285e-01 -1.7493725713504529e+00
      2.1603056839307890e+00 -1.4390565781725544e+00
      1.4577734262640301e+00 -1.5859291113400156e+00
      -2.5282798954820129e+00 7.8890732880279191e-01
      -1.4256101242127341e+00 4.8785358701589709e-01
      7.9138574678303403e-02 2.3570990441792905e-01
      -7.2197434549472062e-01 2.9966307235742256e+00
      8.4946135948880563e-01 1.7700553616825496e+00
      -9.9466449415381319e-01 -5.5068285526108696e-01
      5.3011705070281068e-01 6.9104190525076747e+00
      5.0492006038703352e-01 1.1843378622040589e-01
      -1.0323437031324347e+00 1.7042235136279718e+00
      -3.3326526581478683e-01 1.3742234310726114e+00
      1.7858910023260106e+00 -3.4076293599207670e+00
      8.0230492923472230e-01 3.4542737408743953e+00
      -1.4218212708770228e+00 -1.3366846767137039e+00
      2.5774791804520358e+00 -2.5519010981522223e+00
      -1.3307087185166324e+00 1.0096435985917438e+00
      -2.6541928150952587e-01 1.0402231579288954e+00
      2.3563361263452749e+00 -2.4297943110699505e+00
      -2.4921959108949587e+00 6.6563588362227522e-01
      1.8157938187972369e+00 -4.0391552832910378e+00
      -3.6510245402270871e+00 -5.0358249388570964e-01
      -1.9049481067633391e+00 -2.0933877144799826e+00
      2.2671016769520573e+00 7.5458344370714292e-01
      2.0665669320802391e+00 -6.0175552573380420e-01
